{"sizes":[75,192,192,1],"layers":[{"W":[[0.6339312375284881,-4.535589345962417,-4.467923002518313,0.928636195824489,-0.9723614341889134,1.5570809020161953,-0.4066394984626932,-1.5190723536500261,-1.88066049263384,1.7501263876129893,3.7889624778274142,-1.0148686013615296,-3.949810761994381,1.9288338125833266,1.025031725451314,1.3261954198047958,-3.2480571612990192,2.770729977795038,-4.231788985412851,-4.543455646776064,-3.1127022670996456,1.1608651680956472,-2.7640170375737294,-6.449016132056509,-5.343644219377632,-5.265498796744948,-3.002049907887234,-6.224733582559119,8.756789908135904,9.121566437689618,4.451310247109652,-0.25938193969183554,3.0006200293634384,-8.639920676902836,8.330991661551174,2.6091612811606892,-3.1859311170191678,2.5852346976507103,-1.3818781908430293,-0.21959331781879513,1.914366254359326,-3.5355395159115455,2.6515222806890217,-4.798870577334515,3.154888113716841,-0.20684299574177983,-10.489150577005944,3.435970357433273,0.32468597679265526,2.8686514734525,-0.9661134592400182,0.32101017969864504,0.17204201047625356,-0.5196760223299407,-0.1239158914937989,-0.8961094661856323,-3.415361740293114,4.697097803598383,-0.46572779361302824,1.044047444548722,1.6657299443150102,-0.7220771714824968,0.10577132020232229,3.244448672658863,-0.17638805055445844,-2.8987053129160554,-1.0107631970795765,7.394853599715188,7.515028631028653,-1.0417397792311809,-1.284532360938677,0.9030763781794308,-1.1007653731167575,1.4604443372767848,1.3271812952014388],[3.3054620952941964,5.141014216621678,-0.8320863332472705,-1.3614239224262505,-9.945557064204076,-1.3647452103560733,6.813874676903012,-8.248347836429602,-2.6777939833699884,-5.532622846034031,-1.0629672493252216,-12.535200553168572,-22.731516993373695,-3.3883605212889063,-0.10272059091340224,-3.2799220998293106,1.342661013753136,1.0308629414735928,-19.252835641683212,-13.670910594777364,1.6862395506257173,-3.7637411888270713,3.1200473933979977,-2.704612577993309,-13.533528984505349,-2.4453414687425044,2.5576803897006464,2.8685309731205852,3.5809619842819864,-1.1090742480258013,-5.979116528529895,-4.760467237018084,-1.640557002338818,2.2071219016913166,-3.7614695900949804,1.717091338371425,-7.093286466693157,-6.380505145149062,-4.725277209309174,2.8451016588590754,-0.8613551308721861,7.392707312559911,-15.214788057885086,-10.361773281740213,0.3408205559983248,4.261537800491876,2.5264192585718477,6.185411883550336,1.6507283255614025,-1.908932458909903,-0.39192073049880916,-2.785561313797439,-3.413046335726607,-4.813244180441408,-1.5643115933600105,0.6890027966752484,-1.0459852793505469,-1.6681948150600925,4.288797212211222,-9.657149260578555,1.5301242967178557,-0.1418897535775162,-1.3289231281204095,-4.505874169899872,-3.25017705369107,-2.071729141206466,5.627316903835989,7.148381040396534,3.130827895514885,-2.3041422310034143,2.245416566246359,0.3304883437362113,0.24576667014136508,-1.67460124586107,-4.148220081768265],[-7.884127352914116,-4.164257093539602,-4.025866472368284,-4.886431117830216,-1.1436870298353898,2.115209210225413,-7.8930847781515805,2.0025248157635303,-7.35819561813127,4.301972610904334,-5.143081379665133,-15.247311560220313,-5.074239334387078,-2.5955587181682236,-7.100044372515986,0.7209778616264831,0.943792306582431,-14.060744787640683,-4.100566109267584,-3.7424421441048836,-14.333605932772176,4.617267015308403,-2.5271373335318286,-6.900523581062531,3.2400969653530827,0.7234258721234408,3.1368879566405554,0.24797893632700038,0.5502073443684917,-12.425472710134283,-6.584169094147734,-6.648216261341188,-14.412477626936434,10.151204189882451,0.14563323616829507,-7.403795244429901,0.41256241706506047,0.9198053568247444,0.5767069872452284,-2.2815866579461637,-1.2527444321477228,-4.475813822503123,4.21359717524835,2.6785006034287853,3.2338939826051223,1.1573787996116296,-10.019300734100204,-11.417486295335474,-2.1023893782018983,-0.4334247064152795,3.946829584293683,-4.484016644548361,-2.966250310974015,0.6942887200379235,3.3420812532988315,-2.203637366655157,-3.3635968339967492,-6.006306066221325,-6.957761763386662,-0.7078816203861638,-0.9187479633942387,-1.3529373588368692,-6.061552771549119,-0.7206731444989963,3.6529418316704487,-2.3021848795954383,-2.9670517670630145,-2.332704433825251,-1.0609289739739907,3.291350005299277,-9.339552701387897,-5.474330704697846,0.994567306544962,-1.8431439646288792,-0.3709361227594907],[-9.113725169745162,-0.4007337398735572,-2.665037191754786,-2.713326362857601,1.4445403120421494,2.522749318913097,-0.7106035139883143,-2.9403450197869927,-1.9795805566416207,1.1094007528532008,3.750606898454905,4.758575613428893,7.308233440643977,-1.6367450677084299,-2.482763328247249,-8.210205753199928,-6.580884897580718,-6.986362045233413,0.13361079708952014,0.31664197400927113,5.746849338514709,-5.461251774850429,-10.253357752622806,-6.181185329761186,-8.70264751613927,-4.395306567782975,-0.8855282281119525,-2.441522395460793,0.7920443959427088,1.008111903326541,-5.29529822146737,-1.1613359631012075,-0.1120254994438068,-1.1534748324568878,6.923199410038033,6.070709321916392,0.3700324621149976,5.314022504773571,0.09774505994320425,-0.7886262810042837,-1.7242114181647492,-1.9193192085981516,-0.5425471274361368,0.9308071233461277,2.1146173283178955,0.0022062337729520055,1.0857248626824485,-5.874790611133079,-7.799873129374003,-6.354807541724371,-1.3904847182179267,-1.6769520568349596,6.599958137526653,1.8007496705846422,-6.196260181847557,-1.9289773444898117,0.18079947053184528,-3.0956391515524686,2.7796474786780196,2.44955017433514,7.51643808060718,1.784812186789195,2.088685095427979,-0.12286053703353561,-0.7389350367756953,-4.993887557913588,2.0835485053838925,-2.7209273751781815,-0.12581204301526663,-7.021923312690854,-0.7088115517610274,-7.125134680573704,-1.0568935276841562,-2.0141367213684256,-7.662901146537539],[6.497995680267003,1.3500379320903955,0.31931041608823907,4.773173885993215,-6.595950212771031,-6.899882746476599,6.614668146284052,-0.1026652206886704,2.8762776302812814,1.685410206196191,-2.009803338169954,-3.6428744226541627,1.5431947004043256,5.324424064591204,0.43253638671861655,1.4102454662188106,0.2789811015820202,0.1277405911090669,4.701004784095512,-3.298695948865485,-0.9061131700760684,-0.4988790875799946,1.121721444976241,2.893871737146182,0.6022995826598524,2.9900972486661774,3.253778866107743,-2.1892683311359136,-0.15640929946041565,0.788083352198153,1.6208912778671287,-2.0569809602337967,0.7357683709941785,5.618779114393439,-0.8285291737452756,-1.2364328773992546,-3.5292004530306507,1.3236754861314264,-1.541130094658876,1.1579639879868044,4.788259171933185,-1.3308178398897972,-4.114894677511855,2.7975239734001995,2.5073857752775495,1.07903972281291,1.959877686168131,2.0944626274912816,-3.6330614522990317,-3.178048812104688,3.4652455317728315,-0.5457659191126956,0.8896494942525215,8.874674673370246,-4.322582359084584,-7.489856116076936,1.8553224114485087,0.23478857752535992,2.5985712826902008,8.29176797057667,-1.186225577098631,-0.5812721240215494,4.870916248318801,1.9273637636370502,-7.488401145309231,-6.297312307093386,-6.886185230400938,-0.30270855764800597,-5.995622662738357,-1.8455164804346402,5.888504396359792,5.419586738994038,1.303521778440525,1.048985037396986,-7.25400946945036],[-10.672610618535705,4.570881621801493,6.005278569904514,-10.691224026293485,2.268153788393064,-6.047094126511163,3.3520592673452656,-5.390532583645398,1.3316397583683697,-2.7233584332863585,1.0328423395337822,-2.9334725612900634,3.0409931716173153,3.3328214728243255,3.7902118819103894,-6.254157147311801,-2.7683972001127266,0.19103000087731384,1.1447755429610107,2.3715893382056272,-1.1878144667243715,-4.754286511198482,4.48295899985287,-1.1985988005492179,-4.680351842837572,-0.5423659536490762,3.153902775133541,-3.937319664540038,2.0485590146378425,-0.8414926601007978,4.405514211031021,-7.28806643203037,3.0612642707896067,1.8458613920625535,5.033083861859353,-11.084840212369606,2.3717491280381116,-12.08877086231277,-3.511473617619761,2.9202415089957614,-2.859164882913483,1.4584451772750224,7.228894774455694,-6.865709776229816,-9.283060082436638,7.573418583811734,0.27477656411397594,-6.008875462829987,-3.42635290940752,-3.508298992138334,-2.641796928883515,1.4951980783249876,0.017560113097913815,1.138160563358364,-2.377270098805377,2.6527980844769705,-6.068328796008679,-6.881936995953616,-2.8785927506469164,-11.912470187316444,-8.862076483416843,-2.4686362886176214,-1.1975448657873835,3.824318114405725,-7.384654962459198,-8.865875455640781,3.1105558209388335,1.7524107805265257,-11.448678726047365,2.748454233392911,-10.144367941541436,6.615785237511722,-1.506644700583832,-4.9044634476294515,2.509852509424597],[-4.63529649091653,7.133954375818246,4.48607673690101,-7.982832489456584,4.787947540655027,-0.30088650657540067,-1.1297320329288807,-4.961895309554035,0.11065767062653126,-5.523439851101963,-2.009585924251067,-16.785192831040405,4.71826654713355,5.08380536801476,-8.454286506224296,1.5911904558029195,3.6191990787439186,-5.236912090515942,-0.9341695461562853,-1.0972067371633065,-5.058199901773639,4.744870007131736,2.782843018755779,0.9960872967323721,-0.2583298883308014,-3.4783456258670657,-1.002794781601482,-3.5867514356479613,-5.491284895539077,-2.4010795447348254,-0.6971023170013597,-7.5618913423649765,-2.468640309191302,2.8360631778844874,8.50034458970931,-0.47325113406435243,-3.9586043024856865,-0.28520916280541175,-1.8133297741276186,3.495048271508456,2.0113993885630723,-2.352962099423548,-4.105116452042898,-2.033610521361213,-3.956621590550149,-5.766863862396539,-1.3620356576031731,-9.984275427566558,-2.700300242352132,0.9248330984175034,4.222935356160606,0.37951817342932176,-3.9598998010187514,-4.9051483778649985,1.9632377822773117,8.845030597090354,-3.6373932157028,0.027051728530995328,5.016888097972513,2.5540694933050876,-2.714069839765035,-1.7156406659278358,-4.597759728317694,4.626233105510988,-1.013238216500544,-3.3896406912944568,-9.188620491675069,2.5683163000556632,-1.660940459663976,-0.7754891680537827,-1.9167090535859457,-2.5771073408968177,0.11094344771574569,-6.041874770175512,-3.0470391052558727],[1.7867572511642342,-6.2407717896669785,2.5672470667712286,-1.0719804044410495,-2.6495707582797574,4.399096979641257,2.944027561014931,-1.2699257554454169,-7.277736903592068,-1.8030913693843835,2.938516262854475,-2.1191555840184964,-1.649146843519424,-0.49146538075238067,-3.1363829044238227,2.7979916779805407,-1.211680141996763,-6.199319575695741,-0.6400213212013125,3.043952332238794,-1.1123701950618399,0.4290717202849233,-2.9670512974836414,5.38533321942779,-2.1142653295680276,1.8601804667924908,1.778687510595082,-1.5288413518516446,2.9951791599897164,-4.174141795318724,-15.392932389991984,1.7397275058982287,-10.712832765191008,9.222212294149573,2.3434639578153855,-0.7877413099221237,1.331549194958075,-0.01817834143920575,5.680563718707105,-2.227170422172434,4.385329543229205,0.5413493319942454,-1.3848972499121988,-16.503011848800835,2.4029097817975984,-3.348999374693509,3.6153171744190264,-9.474407039488721,-7.086706385396288,-2.824760275565585,-1.5918144106542027,-6.598643409734539,3.046437314654618,-3.78225574049783,-0.9568079243517289,-1.6384412993435462,-0.8815334475136039,-13.409864356657742,9.930020094760842,-6.648540906500403,-0.19043184575734723,-5.388140845306748,-0.11021855449087609,-5.046568795865531,1.7777817548601844,-2.634900546167311,-1.282904407142797,-4.330167161027505,-0.9913061308601595,-0.46738804780113785,-17.548760184089552,-4.4405917698344535,-0.8556396839094313,-4.641702947735521,-0.8654718422413977],[-1.7697937491294107,-13.431410723729037,-7.866626010734935,-6.433313888467189,-2.7491969098322877,0.19395431294395274,5.582150263330962,1.783136927487932,-12.701934010692312,2.0793216600412157,-5.536331177719874,-1.6023089613557013,3.6629997247009882,-0.4958136165437304,5.0117136646568525,0.4188951990805768,-10.178109494471858,-5.566461005725044,-12.790257563504174,5.06588135269029,5.857380558886332,-3.7138196266218246,1.2763664421442058,-6.030148533938095,-0.11841300238825893,-0.25695940449717286,-0.09294726721986232,-1.8877781795344086,-9.193999069791227,-0.6110618346056048,5.066540907385348,-2.1914980936203583,5.71671595254012,-9.410345555765828,1.2579081197353326,7.002424393756895,-1.1298592303823505,-10.705318694273885,6.234254383335978,-1.5716230783542953,0.09784341182489868,-4.483218299230111,3.7295381880420733,-6.647549832260849,-6.861640171346606,-1.2442237505913032,-2.1041547257971502,2.7525933183679925,-2.1297638378019,1.2407086878042568,3.648403767301965,-7.839768730347616,-0.1504373510121491,-3.84259245366799,-7.445505200916596,5.930459125065277,2.2620528897588286,-0.18467582359212797,-9.036522583005617,-6.63110035377499,2.155983823141255,-1.0472134533439994,3.39675071363651,-0.6043686966032895,-5.3164233942471775,-0.5156536300609806,0.7328219437026101,-8.299284516773184,-0.08348642242164672,1.99888121093734,-3.0270136097036717,-0.05426664875463829,-1.2839366295980237,2.6725874743297497,-1.1330048005477082],[6.167191451476642,-0.3391098479824439,0.028587159556757117,-2.640708374550443,-1.1997875749530478,2.369875345896977,4.3795112452340765,1.4356249448765428,-9.039645758886987,-15.047244875415736,0.44834660798700143,-3.823232728005772,-1.174099797847494,0.34830707667542404,0.9424236414729078,-7.182193084206982,-3.0136681107667096,-8.542624063056197,-8.445340005743294,-12.310920488189705,6.139017683333335,0.8817342963598107,-1.551794047213581,-5.245527170385655,-3.063989431190448,-2.8297247080470176,1.9869972742245006,-4.912262751559018,0.5068758493649411,-2.39572518168534,-18.09402697460525,4.6544619250094685,4.214747808005231,-7.506412133746053,2.8441484333102536,-5.613406627139645,-2.9681712946135828,3.831096734872133,-1.760288694131728,0.06764967248940855,-1.6863778436883838,-5.164835862074171,0.6529181586068982,1.4694016759024495,5.157876970266283,-1.2815491379755033,2.7869225997668696,4.766655463218767,-3.470103269590341,-2.1043819004060422,-5.268019357966168,-0.7932161994096903,1.4962220464111498,4.249247429530754,-5.9776823382506254,-8.140404329133803,2.124780290247405,-9.923874533324366,0.6210029598514724,-11.391510862639564,2.676339372611447,-0.317475895285574,1.6908342342880562,-5.253712472804722,-7.713508011450192,1.2759501030574574,-4.004449697296263,5.6919186978214995,3.5767158879733367,-0.5783214365366804,1.0839506857988461,-19.61911829728679,-0.681255406173436,-9.649441928924663,-12.257147635604214],[-7.524183956805754,0.8767295638991708,-7.388709622470988,-1.6022559514706796,5.145131451999944,1.8082022234877402,6.019096918667506,6.252463203923471,2.4157945881767207,-1.917525690356535,5.043159328037326,3.7327454062288283,2.0693506591727053,0.15125017874470023,2.3817804995169785,-0.24054687822643606,0.24278979208008247,1.47739554326621,-5.226771737352909,1.2597226775746901,3.066070447898502,-1.1407885627387078,-4.739677292902579,0.6021861971395976,0.03737874659643847,-2.13533647234431,-2.9983396779138936,-0.41883855197591935,-2.5845861638685754,2.30267925993122,5.163258314693867,-11.371399786914276,3.810749717726629,9.60310183890777,5.614127645597352,2.1809616790680835,1.2652787441857507,-3.869031661324066,4.09822772158323,-4.321920943692942,-0.40103683362481324,-1.6713712619024215,-0.8866508502352882,3.508209815729494,-0.8100277382933987,2.2625527753679826,-10.305354089754335,-0.09686560480297081,1.8555328080591982,2.0065186749056023,-1.141488004363859,3.8354909128196897,-3.96191353541077,-5.7136179382952585,2.8032195478626987,3.4775980894579437,-2.786257367365373,-0.4714479498534191,2.1464019084247847,0.9648758666511842,0.22915984949632803,4.273978705842469,0.6716338980615719,1.564885869319204,-1.6979196454372045,0.09493933928326387,6.023694275610531,-5.605636495913981,-1.6263218259347967,-2.864587931739153,-0.9275104043112278,-3.916845773337372,-0.3121173050962677,-5.3545054213041,-10.995712829972437],[0.5018298690374954,2.2093087040948096,-3.128344588075188,-12.708764393421099,5.825326785725269,-2.734793720572163,-2.2487654895126665,-1.5685469922917232,-8.177859345732124,-1.7429012509753687,4.7330615460206795,0.08270283509865871,5.444286136389857,-4.490779981077604,-7.901813880085895,-2.3055981110639414,-2.354891827329143,-2.5503759227727167,5.537606639899684,-5.7795290865396876,0.45470171141977334,0.8133418806694305,-0.07094042700708787,6.1576637853981255,-2.677516063007902,-2.343550071610137,0.5272226093463351,-0.3269350781576176,-0.012744768781161387,0.2989556429479232,-2.1000878862040837,-6.908678810202251,-4.151425346694614,-8.278073032195506,-0.0817776627722929,0.5583651171910485,-1.8276226208505904,0.3622734906714367,-12.586685068083982,4.711270054050306,-12.152762574027456,0.2849076659322481,-0.25685401581708184,-9.779089978314026,-4.136633017868157,-4.54173456101512,-5.8015819389014895,0.9326167423517124,-15.230070678901056,4.816718649757759,0.3396115841972111,0.1071299654999239,-8.106438937823972,1.751540487045013,3.5469751746001834,7.116504690977726,6.464459007349024,-4.764570840558266,-11.979754462840353,-5.117567702151091,-1.691301304939115,-0.7355878544352688,-2.816740489837889,1.4857118886908398,-8.56128188920984,-6.723462179076883,0.3328316722813281,-0.46784557078042743,-1.8897089037830659,0.7719310319267798,-0.9851937015891732,1.8282873492487928,1.0978017622624452,-3.432461146622575,-1.1370977823868382],[-2.708961933168151,3.8328495306632955,-0.05179022266427395,-4.416441988734762,0.20709534400260135,-0.46600100209705086,-5.65951218651003,1.8119539465530727,0.012634844983610258,-13.069185306993125,-9.758487064745053,-5.449807084666635,-4.274471634098533,-5.067786788816754,1.6157360987021352,-4.161991375169106,-0.03200845279318463,-1.463362219423051,-0.37056260391945206,0.44337961827559486,-4.095293736774749,2.900957268390406,4.052226010433617,7.97516782533942,-0.06799188797295022,6.004298685681627,-10.112960714117655,-5.2074633116946565,2.547224556650331,3.4533865723190225,-7.167540901927062,3.875576794829447,3.8806035860924917,6.175037784072857,3.3353546557340956,5.820307471296681,-3.9481995820826947,3.1574474478546866,-2.205417303697772,0.3634654124782138,-0.9928548274118048,-3.9644592600365463,-4.254911572743083,-12.62275052519714,-4.663667605910104,-5.263608361686808,-7.4154524735603005,-2.360083391689126,4.97123173955154,3.274913102374593,-5.323838563341084,2.908147390663502,-6.49421682319015,-6.776351332298862,1.705420718108546,-0.2704710810236476,-7.713179575598025,-6.956071629102529,-2.0494449574755755,-7.573074566427733,6.7295391726870815,3.9962882329979816,0.9963093351452672,-0.7447107970810157,4.14626461028682,-3.3288144885137845,6.7374257907219715,0.08763573573159322,-4.262610300307185,4.530216917501548,0.6576670771565438,0.15994348940115863,1.4374820248895428,-2.288616235026048,1.4029139010717178],[4.6152175262474175,-4.012031739373609,-7.32080079898855,-0.9269983780783626,-0.5089810178293205,2.820536518578391,-6.856602486976386,-0.779087153213934,-1.4579543222397526,-11.85180014427936,-10.661392527602304,0.09792897417315788,-2.920127368221797,-1.5031371257804746,0.9144662565436197,0.21178470570681354,3.275092595166756,-1.8869848376680791,-8.578008630898832,-9.674829083872684,-5.0759739799234245,6.6457893911304,-5.183937169486977,4.745252262845496,0.6133615107703164,-4.266603667426916,-3.266916681446712,-3.039623987264267,1.2203628675390983,1.5767956885711907,2.9341064924302,2.7301139201900377,1.1646766328303413,1.1034305581211517,2.380257483033467,5.074466993187019,-2.2485358058710383,-4.3659387437045165,1.8775408748614741,-8.180959929747422,-2.54609003480504,0.8591244925152095,-6.988630389592618,5.393627577310764,5.705333631574447,-2.767821517536254,-2.5792343508096582,-2.6231079821984427,4.902243336480165,4.273245130326921,1.0304860109016711,-5.989419719730067,0.7846113962886286,2.7459547336783836,2.8793728897148427,-14.790769369146915,2.866262937261976,3.3863453599213242,-7.146302277878799,3.1436915057364643,-11.12668807348495,-2.036345151242455,-13.898993796736278,1.7256242888064144,2.311624772294303,2.847002506594674,2.715227423478733,-13.590650354447012,-0.2863404110271369,3.761715588489413,-5.176759550666348,2.14439327676183,-3.002397929951021,-11.322200000991897,-9.54999834415787],[-3.9353973831563223,2.888704708523622,-2.460590484717529,-0.9320606485197656,3.296895042002505,-1.7065983013800357,-5.373869662003742,1.7182828847876612,-0.563540615854935,-3.686128744382268,0.9550185951656515,-2.390535716448824,-7.147815510682073,-0.3013407702326402,-2.707948098126388,0.8097596226566852,0.10494640822931965,-2.2355894206123534,1.3134023133521053,-1.0873873467663995,-8.714752983088784,-0.1982769535184005,-5.567760595180268,-3.1220922706067857,1.5682558849851544,-1.6141695325532728,1.046138951009414,-8.705980173892701,1.6630296343277018,4.235254672598942,3.710271136986966,-6.55923070444437,-1.6272202298440337,8.191224240284424,-6.547103353047012,0.6072918935262176,-3.4677337779739643,-2.8895862130621626,-2.5103521520866092,3.723932143479234,-0.3335273306745722,-1.0237193004259728,-1.984026998506976,-10.23755042852293,-1.5121671289721674,0.4258248098825975,-4.462542838455873,-1.0636156276151463,-3.74535522482576,0.5230387346290023,-2.1165506608112463,-6.4800942481719,-4.74001745294804,0.8354172219716679,-4.476934770904909,-1.2526517474913328,6.738403060707215,6.328290869505223,-8.189014413725097,1.3300669288685443,1.462578292056352,-0.03555326931260118,3.0043733508501993,-19.238841776632004,-4.1013291737179065,5.746191712198637,1.739227334040547,-3.5274779423425677,4.359784441996019,-7.8782789907936674,-1.6077401215885936,8.369406511056265,0.5470083042998627,1.02943546838417,-2.0149652118999906],[-0.25905777887510956,2.5635652938876987,-1.0351839895765527,-1.5572418549254645,-0.3345716705588919,-1.7238242529996748,2.957843919067051,5.541751672440002,1.947784118105182,0.08109948780674922,-4.112016891991997,1.1366817071908661,1.8647183384019541,2.6425040147315526,3.053462340303147,0.16498759367560648,2.647072516416561,-3.1974338520173466,6.97661419284074,2.0973768289130934,3.7397663583240415,0.721848082747878,1.7164025410048867,-5.902770880779029,5.363701601132034,1.443215032346665,2.44344309406098,3.4980552497628388,-2.2590038198733287,-7.4055682744771225,2.1133939270049598,-0.017212560233547183,-1.8298564962783301,2.718663454178469,0.1017806368406628,-1.900327011081031,-4.539105876451854,-0.21198877505933106,5.269569106205601,2.013075036691801,-5.647617307187573,5.615739783275494,-0.03767185275377812,-5.784155901116443,-1.6720534881791542,5.4101696603889655,-3.8175799292050825,0.611786416880595,-7.642554308787422,-7.200243642347612,0.7437168170044998,9.293108132620246,-3.061939659198703,2.5995536370749077,-2.9355019278287884,-0.050979015509572075,5.014777175722041,4.050172720775329,0.057143323943964534,-2.6015987495415573,-4.426357025047377,-9.997207605912566,4.326013453344265,2.0812671142828694,-3.2647051872541257,1.5981461830010568,1.9346997482411057,-7.779552246302046,5.436308112363809,4.338218833561185,2.2075670508824636,2.6184777425359225,0.45542161222476346,3.9794384585603035,2.516838767575952],[-1.1064657685745618,-1.5002120854894283,0.2372405162608905,-4.134063602473311,-8.9170799298763,-7.734725683563947,3.7807364217032435,-0.06920406840832158,-5.92788884546372,4.5479606978398,-0.5153465511152957,4.766088911049565,-2.7592655104347816,0.8112915500708222,2.63519293610225,0.34939694378538577,1.3789018956276227,4.030754581007561,-7.651433500103426,1.9436030858515305,-5.787888356017102,-5.085049160891817,-6.443777062758361,7.577727892355741,2.7997098604464576,-1.925688974425985,-0.4107156324330188,-2.4488785662452877,-0.4714730156446592,-5.925259774407816,-4.1133681117164125,-6.648036649019204,4.352746620874868,-1.4664299792321887,-2.247545484542399,-7.455182464549033,-6.64169802024745,-7.816536810436315,3.0972315496148486,-6.488675173726474,3.4684704262852475,5.289480683367516,-6.00489607865154,-3.576578200346243,-1.4763145018972283,-1.3357830287502672,-13.153788846328098,0.626528904470552,-12.497770920890224,-6.473093680518026,-3.746910653666182,0.8233216263914845,2.9984373334415246,-5.870472956669474,3.3011705654551355,1.4179579463182366,-1.0603587284204463,0.46681360589059995,4.6110921045972875,-1.8224685064455515,-3.699822524252341,-0.42537466072682634,-1.617632621288465,-6.843685290876292,3.210965976940484,4.936084922972687,3.6743059723151195,-6.9916096484788435,-8.63523774589798,0.32651584349162294,2.9726978743839956,-2.457905251485722,-0.93308519244807,-1.037712571220372,4.800430675831424],[-1.8800368871728872,0.14679689953497035,0.3485727036167456,-2.3566988112515936,3.3724475819286734,-2.233937877910823,-0.6965191015661022,-1.7179992101451702,-3.4633213264495204,2.1461492013432815,-9.724331593639171,-6.768173658048986,5.2202906404880505,4.039189765646624,3.534081224533207,-2.267051066281494,2.206736026166682,2.3603192941087094,5.057259392771668,-6.198457265747606,1.2999222489063411,6.130553809751765,-2.49414888300224,-8.247350009924826,-4.022660707199152,1.4481582734083926,-1.2697267235623446,1.571589585166428,4.576419419765675,-7.027693720439811,2.8899651441663687,0.057333835310644246,-0.8263160188762937,-9.767242985359932,1.456296226083724,-0.5506997420469751,-1.4826164494793677,-11.509410518724852,-8.057752247227699,-3.318753497003943,-4.08199957826913,-0.33216973413174605,2.331251962787656,-1.2413688884655543,3.706617701944911,-0.540694201291942,-5.506058329049183,6.608449083666732,0.5852468941985659,1.0625054665649838,1.9947605235793697,-3.2157034756978273,-4.031434562699762,3.248199488680152,1.7413432104650663,3.2651169811830654,5.99827106383752,3.3388697666566363,0.7262196948668794,2.7576895748731567,-0.7589919851431448,-7.9910929142789024,0.3091923227227389,-0.18016493743706338,-9.882132158205655,4.095567359753342,0.5645267831839927,4.3850364614096655,4.658568471389895,7.64410457320485,-5.8416505464143125,1.9109793650917073,-0.8641764788312462,-0.92778963531869,-2.1820333228682047],[-6.667079047039335,-2.407458582998011,-10.899185698584818,-2.3454268735402204,-3.700703486615641,0.010389825061024567,-7.611000041604637,5.44084834758073,-16.133262923396302,5.582991954498346,-6.890958765145757,3.787659964303326,2.5530584773130918,-4.09519204910458,0.3027993938386212,0.022308159522366932,-2.5083562220882865,-0.41193073123655394,1.2779926734328872,0.8970428260362806,-3.6227177962074113,1.8696616845185248,-11.705820036601326,-4.228086336307868,1.5441139843887095,-2.1337974221761002,1.556208135352045,-3.7572905221552446,-2.20070357571275,2.331909252082132,-1.0795181830105771,8.130454101615678,-1.4686847921961144,-1.5139595118688034,-23.999776659930045,-6.101383662941339,0.7121672159876242,4.333022181857478,-7.679597480765714,1.4151481767011183,-2.8335842854278113,-0.2911587972322853,7.293234232002914,5.237996051762617,2.3899401153890114,-11.598342313255355,-11.208442231716838,-7.811189326077376,0.049538575031476705,-7.2667674422039905,-2.223813516861513,2.0284052620125235,-0.3296093302818924,-2.6482826050913992,4.785517112449634,-3.28455869414474,-4.636442111892847,-2.9561023761657705,8.831454132506439,-6.272126722843089,-6.624162449196805,-4.707935695663682,3.94897422999952,0.8831466927960427,-5.0453673363329195,1.8809978377335659,4.714355835183313,5.278872851064738,-1.083469931810525,4.964237118271708,2.256740426564618,-4.222611119622111,0.8178383126006029,-2.4903768841317233,-2.6114736020228757],[2.656854120204485,-8.14150311505215,-10.482331943036627,3.681597835050815,-2.2004158653554873,-0.6025320082009904,4.528217405452085,-5.692383430654944,0.27689651457180603,-2.0482588238972332,-0.3778629083985028,3.2898710596776892,-0.8369075649593843,-11.541358722245361,-6.873191016497538,-7.939417423804546,7.544511172899793,-2.398538170678855,-3.4387161093906324,2.802983536837178,3.4878678803930616,1.8379333834297942,-0.5434003043181624,-0.6268097183167715,1.4766833730439861,-1.2775032967695392,-3.1293253842737743,4.546860552621033,0.5689202329554142,1.4074116263874006,-13.666136517284132,-7.179255515610161,-4.611052267142799,3.292939944745162,-1.8759698207286348,5.267723818102218,-3.6004710039395986,1.177293624903717,2.806143366025035,-1.2147296336444993,2.0962709999226594,-0.04722117363287189,-3.1537191407668925,1.0514065443364304,1.0452211032448986,7.50663545301278,-1.4262600755031585,0.24254961403020156,-4.319702782798672,-1.0027683602054402,-0.15921186913393467,1.1267225078169458,-2.2905933135273684,1.1336464566361846,-1.4068437991289726,2.8813909529602943,1.9011669611938347,4.8346977052913935,-2.2206300781159,1.4810278622876976,1.9557801041422673,-3.2947991388965123,1.9704281613027987,-3.9918299918490066,-1.870003865788666,0.024962635362150848,-4.043569974103727,-5.849326105666167,-6.232728891962528,-9.09250822849153,10.287680200649877,0.44665817015314924,-0.05477227808953123,-6.818447088828945,3.078285066111863],[3.1033843856373604,-0.6807535881978224,-1.549703953712567,3.7343914163725396,-1.3680654920816404,0.2522369519198656,-2.5038108247178075,-0.6772033079811065,-1.7396497045034638,5.613484468035092,-6.457868179258097,7.1975200360751765,-8.571309317892885,-4.097077046673543,-3.9693314190846465,2.355844999834362,0.018069285721606872,5.769320787290872,-10.42504146399449,-0.1516765711582018,-3.7724714275141764,1.3663881359746417,-0.06761493794541312,7.02610933202687,-4.214345805659488,-1.7999195663220204,0.02590367894216548,2.3761760663926785,4.412519165786696,-3.9504878757539905,1.5633675066169643,9.84207140747037,-2.3324830287560627,5.990035591831413,3.2295298317697396,-7.970114753680073,-0.6721213746524438,-1.52024810194926,0.05769097501123959,2.8299660142373244,-0.021816964148906964,4.405352938946638,6.593422471830816,3.4102002579843624,1.4702467657512974,-2.5849133797829515,-2.4995216564429152,2.121606851507479,3.2373906753258703,0.5353357214011182,3.898112059246326,0.8361556038315343,-1.5308757325006235,1.8106169748183412,0.1792563818775343,-4.010189617829104,-3.2047247462903097,-4.867603249865648,6.215325740675743,-2.843295759689007,5.736909675646914,1.594336163320823,2.488843487716587,-2.05989389829071,-0.47950049203308465,-2.9259843371439853,-1.4536798994746596,2.38683652451164,2.799331242922621,-0.89743364858045,1.6321838462542264,-9.709455509327151,-0.5133871098334668,5.647007509140896,1.3643590149519593],[-12.051132522616605,-5.652358607320752,-3.2247735244445095,-5.216767406648752,2.378233249941839,-0.4258572455065452,0.7880987707755112,-1.3969701337323526,-8.906590925294555,2.6810069605172218,1.5725278218941834,-5.996838641756819,-10.012978355588832,-7.761393014691187,-7.592671627332018,-2.5776008853465737,4.253144227452775,-0.6394081635464476,1.3412583966788305,-3.453012160941935,-14.725216901907288,0.28997641919001793,-6.678977020397716,-9.47791080364967,2.153199346097209,-9.230906346135727,-0.6571457122416544,-0.9071026733307737,-5.7757710378738105,0.11485955301300621,-2.396087485292426,-11.993295043691218,0.4800320587552599,-1.5759049873998636,2.392718449651767,-6.4745462613689115,1.4135070088452715,-5.14055410121124,-12.778962135223155,-0.2880089220491141,0.7326654080111774,-2.5051605303951034,-3.621363602928715,2.1282601688131546,-4.244597366527607,0.8274302927610028,3.5827694234349505,-7.066661131087008,2.9603669416385836,1.7899736913853035,-13.20625114943314,1.233001447331548,-7.060814235743321,-3.7767164851589534,-0.2744946375402237,0.6825642949025023,-6.257095785380659,-3.9700463254351073,-9.25073027876126,-15.512625418398256,-4.1658079711120095,-4.850622667340029,-0.9221177199207938,-2.4574392310262896,0.40821852999076225,-2.1046917061139885,3.5515958028747883,8.329354223070021,-3.082005049350019,-6.798585888996856,-6.705610102520213,1.366694333563994,1.2455811470546896,0.9938724497719781,-7.397979544757067],[-0.24382438454171007,0.0029531003928735646,-1.582784709448649,-6.408299074297775,-2.9424331757619213,1.0548573438957354,2.0928753275100758,5.315935090795521,-13.193388824556012,-0.01437461642992699,-4.137571346007081,-1.5739229545126163,1.6398091343944434,-4.242845201377787,-6.604116224081506,-9.821395518009732,-8.835240001838429,5.632526862295028,-6.945064961721548,3.941354789438934,-0.1555496581792232,0.21872172136881743,-8.49852916577609,1.9279638305856246,-1.4131420447827758,-1.1967905989363292,4.252286020073195,-2.5107264119885495,6.990115104010409,-3.7476155097965194,-15.026284012075877,-20.02061778611181,9.118976627214181,-5.46664114659408,2.908368753385674,-4.211587577973475,2.7264233508115883,1.4582574226005003,-1.7543856189649991,0.014745411840317446,6.615941041967565,-2.49709920506174,3.42337817948237,1.7999324374693364,-1.7616235773439968,-9.19193652704121,5.582843109840743,2.048271899325761,-0.9542405936532143,0.5044780116357778,2.989145504590922,0.2759377164084678,0.3460203472193274,-0.6813656575376145,2.5048800893377052,2.506088611502449,-8.027899469796374,1.5343783060400988,-0.3559590872940399,-4.349066173040152,-1.9074481435592137,-2.3903990080555118,2.398953423572531,-1.9744053000061306,0.47105371338211827,0.7968526620980108,3.738874325994504,2.5726603130784467,3.0723520227218772,3.4002233725860753,0.31407844557632,-0.029898970337074202,0.031744372095853735,-0.49403137841038003,-2.0104442278914085],[1.0587930294033512,0.6087624190649964,-0.7535482897313802,1.7595540979003375,-3.6099404501031978,1.2480452390582724,1.3912666596253682,-4.1413983139610995,-2.039105115771509,3.7165989063070235,-0.17111026501622648,-0.24219874581196177,-1.6734676941541466,-2.165963503572905,-2.774767597480024,0.9744026867532622,-0.6138467024283842,-0.8260700206777962,1.5058682445185887,-1.5558905713185684,1.0912912658896035,-3.470549431758454,0.38808266464291086,-2.0233626866150165,0.43088928860836456,1.814918857374527,-1.3863277290353713,0.607644394319079,-0.31704396360875126,0.9399628541168524,2.6186000201986204,-2.2876343108358492,-2.4227762332700267,-5.7206528498668545,-6.789171479944161,-0.30513129303758746,2.886218034267575,3.7034259506285427,0.5496611872006862,-1.7637790859052083,0.5730195546671785,0.5203739318158688,-0.4574833850392584,0.9883850883576099,4.034443233165118,-0.5415482728265476,-0.1925057773706278,-0.05727067607758519,-2.3978925622602225,-0.4592088519709137,-0.42577537629032913,-0.47167456628558707,-2.2003446148794983,3.1708226340926777,-1.5000543757772329,6.056277895139829,-1.83576583317845,1.429699236809902,-1.4397856058447809,-0.6558744467424705,0.2886791343436819,1.8440695611313809,1.0140139226075342,1.6285101148860444,-3.3586202877895532,0.9676246390390095,5.561422679586167,3.0724737876015267,-2.995212753386123,1.5731363668981053,2.95908808430185,-0.7499762814920051,1.3345672185712352,1.4040391006438986,-0.008613788686913102],[-7.633755745830468,-0.7709334482210274,7.0054701770414844,2.2622089143544426,-0.6450614046711475,-7.0726609589214675,-9.352627598438923,-3.203798716449981,9.111080758671786,1.323647111586866,0.5367670286089649,4.741526378265455,-3.407441819682084,1.6090255838995973,0.15791531141692905,2.088934243080582,-1.724541093273874,-5.472085642628144,-2.0659850058281006,-0.4499277554760314,-2.074668961739407,-8.874046017777344,3.273729882915099,5.83196261161928,0.05386257084072532,-0.4952419959909977,1.691244143492007,-8.605475580957457,-3.2405963099821413,-2.655345762734575,3.7169860752961013,-2.829894460832177,0.5223987914620635,4.580444512488891,-6.442660084226966,-0.5669759341965105,2.120629101375115,7.371614387094352,-1.0405607303748896,2.030405170828836,-7.546036763674056,-1.5459111066639222,-5.410640835459848,-4.973993993083408,5.341376669341439,-0.08789951574002182,0.04995928910353639,8.714352476839696,-3.9761839320805965,3.8884244597174678,-1.4441468701488187,0.24359933656628613,-3.1159041022774923,0.9739993807174028,1.7401808002467345,3.5199721114155165,2.2404095054959585,-0.1710190746342698,0.5072410734083682,-6.320475038226565,-2.189941302237641,-0.3440557293194346,2.414997346694905,-1.4559459378253392,-0.2169494576469761,1.4296833786853567,-7.586666328623002,1.3517193264318341,-1.2923722926485866,-0.7417618828995087,5.1893623718655775,3.310485109564142,1.1337690135513048,-3.046705198792049,-3.8101817085910574],[3.851330778591739,2.6392722036163216,1.6529028558090313,2.8059138631226217,1.2583611622357571,6.2213979046010905,3.4071633494443825,1.2043348729581544,0.6608055597484545,2.0349735044790345,-1.2114205904447886,0.9802832408141603,2.461697492716797,4.75360695577039,7.113386896152772,0.5125146963527117,1.2645558483541213,3.9109149852005713,4.779819812183858,4.143141774576653,0.5058005966575082,0.5368051874421994,7.483311063189873,4.115378330701503,4.817296300846816,2.6004449043732083,1.0854775079983008,5.655066108114651,2.8154739358870358,2.5000263185842164,-0.16718707577615396,-0.9520103120752242,1.3962398187001297,2.880674084820325,1.1564447660016461,2.952206935824464,6.18284452652844,4.538497868241624,2.162620834554657,3.9328274684843603,0.5902963362377364,2.440976411847372,2.809314733652502,3.534635591079863,7.063113860749126,0.5866721100561794,0.019913791228354256,0.7421247263987483,3.540816306611643,1.0874289089701668,0.924435834603912,-0.051893854879100525,4.195825474970099,0.6213212756689857,0.48988672138402994,1.329448936703533,4.6325359239362935,0.9378707686108022,0.26376363574373635,-1.0201526996050447,1.407522965528251,2.396699088595059,0.5772137288369023,1.7817716338813918,1.6867189560194844,2.924874999214604,4.475289924977645,-3.7039945279275974,-2.393386147639877,2.969614226901671,-2.5341230331215856,3.118955830921815,1.3428695412462408,-2.3814146936880145,1.05987129744008],[-1.4535158232783156,-3.7475669019090128,2.1873502658196347,1.7070153856291934,-5.40967820015194,-3.3399509996400583,-6.860949412906162,-3.0583999287475225,3.7295576574268035,-5.591733285669758,6.793758832715598,-6.479990493495846,-2.9114344602977056,-13.794259623150563,-0.5157278839330413,-1.3073184653777576,-0.014042144774752343,1.9380711165954305,-3.2014732670028563,1.5638292609000963,-3.929342285690282,2.5285119459946177,-10.012850483654558,-5.7816445622418975,-1.4468881315419588,-6.447713813552719,-1.510534629725591,0.0442299549383773,6.286798863741253,-2.401830820767834,3.516182337474462,-1.232843049760649,3.767670375273286,-2.643302939545393,-2.461416724221409,-3.8835949723366725,4.069045669442961,2.888715385985666,-6.143668428657564,-2.4524312969916013,-9.115434491638847,-2.8853731851849553,-3.154081828943548,-2.5831631646761584,8.199686773861588,0.856420966811902,-2.80638184706731,0.9000066301867491,4.223729713635362,-0.5653608141227459,-1.3172616236956016,-1.5345989463873935,-3.1271689314546713,0.930498964460637,0.5064635756069825,-1.0326872817096977,-2.763239962690288,-4.407355247614311,0.34151505002836385,-5.467841156740177,-1.0016411279623636,2.6027842398769208,0.7217769571272867,-0.11147159172949254,0.4051570186821104,-2.11588439356301,6.381857182833022,5.824596138883402,8.568114938102617,2.0968550149538836,-0.8582258682988428,-8.435161280435599,0.09042409992350114,-0.9211901749576588,-1.4111808500081653],[3.684143641320465,-4.360525245728155,-2.18779112281336,-3.88889063160513,0.6814165280196296,0.20935021051907637,-3.2798517934358293,1.14588887869735,-3.8246016996962857,-1.8385305631118796,-4.987875078496006,-8.615658405330613,3.2537848422291304,-2.638564210726531,-0.4185751688053923,-0.28064658567760725,-7.753907839489312,-2.7657051404810353,9.626736241532363,-2.5715667894553533,4.144429339140325,-14.619043456392946,2.0446194388751175,-3.740722416514879,-4.212069175522731,1.3693732917044237,-1.9122515826536002,0.20231094579490927,0.9029003702373855,1.330990710416022,-16.30208572770824,-6.954729532827611,-13.48877506705167,-1.9445996288756582,-11.035831083569416,2.147632313954677,0.5992875728219083,-2.307420987850421,-20.942242667226033,-1.1164806252937036,2.0992627973037687,1.913733539234167,9.92082185826158,-2.5321880042022564,0.556536973287414,-16.01044771254521,2.506288943668314,-0.3816245531668599,-3.3968414910928573,-15.179668058910249,-5.982209740269346,3.5943592479585273,-0.8897441596608104,-3.055819608220043,-0.08455882354399685,-4.069570974804571,6.146365538680767,-5.677571830272965,-5.158604628814989,-2.1272114895794014,4.4224840897646125,-11.472561278111538,-5.277192604331662,-0.2720600567763369,-5.7223171492505385,-1.0203569113310975,-12.443302129831805,-0.13194295919009544,-1.7368657492435227,-19.12560978459816,-7.856897430417092,3.7846851679206712,0.16322160630826651,-5.152858691834153,1.0578177688148935],[-8.447526771457749,7.751110819814976,-6.313460910429759,3.013202842074636,-2.1107772315973183,0.10827833336213462,0.28396890442148925,-1.7066891512375075,-1.6745337728839342,0.12005688225428575,2.4997871261710616,-5.861364227523301,-2.2507406722186336,-1.57226627118884,0.4405157776536389,3.2173193460484053,-1.926538444824537,-8.575911361111498,4.3893178578240555,1.3424292543951009,-3.2788600008703974,3.1808949635397012,-4.247429924375015,3.6618709334317505,-0.8925467815835513,-7.967470786885357,5.103173873809353,-0.28161266610797414,2.6830301244654438,-2.235652811298218,-5.23732318706059,-0.300979460568856,-1.1972676094378714,-0.08652894186894934,1.7097761817315553,-7.7818263648933765,-0.8203793825284394,1.7090054726559551,-18.52404915415472,5.603632671748959,-1.0184370961683018,-0.8963615658189165,2.1885348781538396,-1.0853590927208527,-8.924945340934975,3.5612921581449006,-5.64108630705409,-5.325172775015709,1.0325428194545556,-13.850963488643874,-2.902585836792866,-5.716454215049599,0.7438062429077479,1.5222148506714042,3.9714481693675836,2.867496754076835,-12.269259695814709,-6.393310264446268,-3.49914343794197,5.2189969652601516,-6.814181646903487,-1.2613920602611204,-4.844790279110423,1.1497297701470661,5.972615809732412,-1.3554213990919421,-0.10316155989632468,0.15464320688369435,-1.0806932312648712,4.023262971358164,-14.84557795859522,-4.905634246991177,-0.8012373079848408,-2.2920525545827495,1.2274439332196714],[7.018669946037771,2.4529265287919118,0.2832311542999449,-1.5857770062716479,-1.1094654142445062,0.8845062530915128,1.0382402602893293,-9.868982252847747,9.122377061526889,-8.636015287962236,0.4750879135854323,-0.1467636576823027,3.536734974457293,-1.7211641623142948,-6.0629913426334605,1.3046702014890643,0.25608441084285816,-5.009515947889791,-0.039878069818009385,-3.2470273687728213,5.343369774857015,-10.590103201510864,-1.644716034687852,-1.1087599474129088,2.650717451214416,-1.3519201992105636,-1.166065401866958,-2.636616651927834,-3.047983336266612,-5.106629929483714,4.067125994064591,2.855266868134538,1.8261329358067893,1.603262690383831,-1.1422633309265995,-0.03240242911838889,-1.2455002240996833,1.3311959557786242,-4.064977451792898,3.6429521943203897,1.9338817442263085,-1.6371238946887472,0.9638460849991963,-7.558325109494384,-9.01449089622108,-0.845580115529245,-1.280840325719926,-2.489394851408748,-1.236847186791166,1.8791271729578294,-0.9888831724698038,-2.952998930758207,1.9142955394918202,-11.584942321934477,-8.83908433196472,-4.242447120625135,3.1298283214281417,-4.194869965091505,6.865688565447676,-8.724223438799404,-0.9905571636145898,-1.3432618291547342,-2.5929033501838705,2.0980306588301496,1.2460441250102825,3.629285284486432,7.437898086779687,2.978929292037852,-0.34620807982621316,0.23583620828467802,-0.54494154114336,5.4563301331125205,-0.44775635636026184,-0.7052627139727692,3.081947952656296],[-15.001661633860369,-3.9716904000684674,2.3201882017293016,1.336478622584994,3.271167389544893,-4.3070334888174555,-1.9401893717827743,-9.169945997690645,6.491209936062897,-17.984786106921717,-7.934487550200371,3.987679221306111,-1.906369461144741,-3.0200942053547797,-0.5387739977045929,-1.0655874160511414,-8.054140302011147,-0.2780844025753599,-1.3694414576680032,-1.5418479584250997,-4.937864928463196,0.9640587744274469,1.731212544313915,-1.9124736422066178,-0.4024655971592833,4.9459624874811405,-3.3709575440404462,1.8465650022372575,-12.500276710183682,3.168001650473699,3.353617065830678,-3.2128246281496557,-1.68017221391448,-12.961447907691138,1.123331096289074,-4.660549894533647,3.6093276673570323,0.9544893876585573,1.2924303659681342,-12.352503670814302,-9.0581827497637,0.5647357219393547,-3.616586766586227,-4.294416524868864,5.4871384622311705,-10.687366271975016,1.4374599777891401,-0.49394023054700426,2.12034721607486,-4.104296392549204,-7.726209423541885,-6.582081575868795,-0.4740043094413887,-0.06389398028826353,0.06373735067822943,-2.010864772516621,-22.217352856246382,-0.1848906741554344,5.870974632629923,-12.710377859447622,-8.073103120324818,-3.4924898752180136,2.2897324938132857,-1.6345656761469607,4.507052998182455,-1.4804023659106789,0.10088933307390999,-5.713049306453616,-12.154340520400961,-9.006590504273289,3.217982506824494,-21.183089062444875,-0.20358922519896094,-1.59919521847897,1.800650334230456],[-3.2828893512629977,-4.763401922543741,-4.533574386564387,-0.8216753895295614,-2.8596226950913133,-8.317443229233396,-1.5105709920322734,-8.628134427929654,-6.82494529462048,-3.183122965296461,-11.924155374765597,-5.201347931173488,-5.072325875287896,-10.275100375496223,1.223502516398752,-1.8842028203905425,-8.910332239119471,-1.9679054764282786,6.121999062380087,2.9937078488511464,-6.005906965044447,-14.81555917808078,-4.691915504930082,-8.522715348604194,-12.551392557989178,-9.560837330739181,-7.168563548277562,0.8730806660434481,1.4349793046085566,-10.55212470289137,5.20705609703146,-2.0861214486211668,4.972770573804162,-13.700795290108505,2.523360636838822,7.023497477329789,-5.375328568396423,4.28372453890142,-4.109160753249801,-2.244490226809364,-1.6702464099796568,-8.199420497798878,-11.667877999491825,1.986948989385615,3.7396247224178683,-1.9112795496903907,-10.427550074939862,-5.529758510860779,-6.685430187502029,-2.7105305343902604,-13.327592857789371,-5.210706606670739,0.2669815794269984,-0.958619036534631,0.5890195872934314,2.4808359636620234,-1.2509764271142043,-2.263725757878478,4.0379912391408705,-3.070488307393963,-11.333100980717042,-11.894791283709772,-4.7361109203554,-5.180093780295902,-3.9618959605440827,2.140934361268637,-11.22848289635987,-11.006100865795323,-6.614582431618225,-6.475342050123207,-5.962869622834809,-0.6546317662148721,-2.0798946943900916,3.060213906327302,-5.058369326344533],[-10.00180249578134,2.011037857024955,-1.6109555393375063,-0.12787763566313837,1.7666330637212229,2.0408087080132753,-4.310003109390714,2.3577203132311912,6.763663280346222,-9.44277753263267,3.4453456107228875,4.933027756663496,-23.27975746495626,6.547009650058156,-2.511123109861444,0.4651476895277752,-10.21632856173063,2.820160621795585,0.04374086901132133,-1.025521381431732,5.5796271112506535,-6.522262360314677,-3.2432515707444645,2.5393678531068193,3.5019320743930913,0.9014391595547236,1.8086273377584865,1.424588643441191,-9.21992925363721,-5.08893424046159,6.13649590236704,1.135405819105887,3.6336495793342367,1.9074166943903277,-7.690805982407921,-5.549449027052621,7.248147488327299,0.9593645314245876,-1.9078673296861959,1.4262800196998444,-3.4474538627695526,-1.841714246299315,4.076545726251548,5.003024618982948,1.6787265417432424,0.4340876352470754,1.5054520108883622,-2.021606270281263,4.750452628647352,0.8794593325547179,-2.5080118431345233,2.924434856409714,-3.806463096580122,-3.857230019735791,4.83037879136597,-2.2617199159722325,-0.501519543340722,1.033598733305113,-7.507784143177679,-1.412197931879139,1.4051793211810217,-4.5097299418536805,-1.048767154338856,-0.2941500544103489,-0.3338477051390205,-4.209345587630007,-6.442128498191966,-2.624991797752272,-1.6022757783326291,-0.7414765209511173,1.46045644947357,-1.1930207955089733,0.5447123591628106,-7.944238387477886,2.475803677422251],[4.3543881705625385,3.115114676090269,-2.9927646554532257,-3.551562216338819,-1.9863914871145403,-1.9478470067586686,-6.449477097252523,-6.198655266480628,1.4885958880946732,-3.2645650481568538,-8.28253396315532,-8.897963931460167,-2.6912902222451622,-1.3989199910856716,-2.474147775281529,2.781666611410795,0.028603521830055642,-2.4758934923165965,-10.749328429035632,4.427401182093771,-6.595586793651836,9.007384303104205,3.1288295654216274,5.05445594490292,-3.38705774591178,-0.5776290271607768,0.9275403227994518,2.126560205293039,3.6072799194797667,4.218958376250767,-2.553220416540818,2.0484689170490498,-6.657676087855087,1.3062443119528961,-4.122193895944857,-5.266744508345376,-0.9500881663418871,-6.791680073928455,-0.24155032163163018,-1.31649199421324,-3.507547773704601,-3.4164187775662183,6.763147466688973,-7.165312683072029,4.009835350130248,6.373880146990453,-10.866120745355271,2.9937597008292647,0.13269190168200892,-2.254008814995448,-3.7488876534088234,-0.6104730612873988,5.666859504969883,-10.598508811168607,4.659267452668442,-4.573274501575986,4.925156266848459,5.227352434378402,-6.887391963183432,-9.978872666532522,-3.743275425605075,0.8020197012456914,1.1544993672113604,0.4281910266657044,3.5211338568133463,-4.174245258608272,-10.820425025997178,-3.0197758978031475,-0.641850346418044,0.06335044248634147,2.6567136182816977,-2.952448462138277,-0.5820976875276427,0.43929511186439196,0.8311296999544989],[-5.074546009609018,-0.6280940888268001,0.809202230991199,-13.42967700611918,-8.372465247238882,-8.24690984941704,-7.750034117719343,3.739280073055799,-5.498735650545233,-1.8681948669162367,-17.667520241762475,0.18718645447232546,-0.8017917419053239,-2.150574319897904,-4.397549672454501,2.36268946427578,0.29513868879811644,0.633649388288718,-3.7224619005946304,-15.872104740158717,-8.701083439763716,0.8934425016119547,-16.142145288289896,-4.467189029330691,-5.599930288631461,2.09192901122792,2.584558908438349,-0.7952497698771127,-8.819675519701367,-3.558811176482926,-3.341657892054154,1.562273336019363,-14.218009354662067,-4.501292682556486,-0.2826449670661118,-5.397834536861971,0.6525487892390451,0.421017733026797,-12.271288158943342,-2.865998660290273,-4.474429296605286,5.641387700835326,-3.791413682770638,-22.55311758593919,-2.721593803610851,4.82384476209148,-4.974428369548316,-0.8131079198876149,-13.569788802660236,-1.996777805783029,-2.416054146061161,0.33711146979262274,0.24730917048439108,-9.89819413057349,-2.581748190467654,1.7449753743467766,2.5064026646547486,-2.3648454211868923,3.780106922026283,0.5287668778329023,-0.19882090141706535,-3.4929277522583537,-0.9526342608605536,-0.7194594834962326,-3.649159492513274,-1.2016374601954385,-4.587099069688389,-4.84250911338169,-5.375820850438444,-5.231997400951489,3.5745893282504753,-5.465708380576914,-0.5031820476264087,-2.596187636433438,0.06844597128226841],[-2.9563520743193417,5.673189448883771,0.915758956027417,-2.038507091214009,-0.8911867489765681,2.14736909528073,3.0214032742774846,-14.669827045018748,-3.3562606414892024,-4.234443306447812,-11.079748166414964,-12.42497618493349,-4.432669452053872,0.0025595969802966294,-3.0714664935318434,-1.2578391748804847,2.17622884370169,-7.6732883910027665,-2.7406000858450903,0.5934535891950071,4.149884459371183,-0.053600541829351214,-4.132288745835843,0.39436474358168905,1.1607461742712966,-0.934680409518707,-3.104773713982821,2.448769409418532,-9.505123387956665,-1.225397141602115,6.566712631261613,-4.3657512376673555,-0.4894050720350062,-1.5326397299570418,-7.631640615481412,3.8106861539264916,-6.874948951927705,4.522863053872959,-1.7170045116010686,-1.6569758293665788,-8.540812079942285,-2.041108914592351,2.2411463449251983,-6.903413351961569,-12.143571855276642,5.310767350436621,-2.9589660730188796,-5.174757170085107,1.1807003600145627,-2.4260046583020642,-9.895996841850945,-1.1155377933179893,-0.9482287386394571,0.29009013008495255,5.467029806994337,-10.049034511857116,-2.106566319502198,-1.277789083125011,-9.324629397476198,-8.838781896886351,0.11334138636748164,6.40543075811276,-1.884702836014337,-4.85990808629656,-16.08199900882731,-20.87076780005592,-16.82464024941239,2.731614867251927,-1.7104137824892114,-11.879583954446964,-1.4144394109818725,-3.6693486692919057,-1.602229750340903,-2.0829987697731007,-1.4405547153719502],[-1.6008348169493052,-3.1574091573115495,-4.231182499360831,-2.441774559793779,-3.3157158645036233,4.852370471524451,-2.821495511399854,-4.42413354909152,-4.9093391689663095,-5.854052461050582,3.903112523447571,1.662241862049882,7.755734589349945,0.4432165546391144,1.5981221644517332,-2.859588689466022,-2.304406835007867,-4.172620537367536,3.5198965100595694,-4.2904472484174105,-4.579500974551964,-2.8451555841547944,4.633515190517271,-2.990012759671342,3.139161595209832,1.5824241872731146,-0.09670823725113158,2.534664459811218,-3.8471242486035013,-4.900854877659935,-11.72595119664233,-4.635075934731425,0.6615241383574406,0.5024365077092376,1.4561527951924913,0.22707562490904606,0.9803577010117802,-4.09470179333841,-1.9025614654633987,4.75940267041538,-6.816826092999539,-2.3848869711190845,-0.29957561809813354,8.147434461818449,-3.705760295595359,-6.432228862098653,-1.7214168365267837,-8.672315151679387,-11.761134855829953,5.014916175782045,-4.572814607834891,-5.807786355173544,-0.00993416683390999,1.5342707588730582,-16.20636549954606,-2.343191638702134,-1.2401767555479752,-2.339690847392988,-1.7946138656373671,-0.8240834638769156,-20.211551710870793,-5.727893392771754,2.5212846423747695,-3.633923787033376,1.1897561096947116,0.325837745165336,-6.408777206257499,3.998338740317411,6.888972938411416,2.068625876052092,4.052422742459592,-0.4224544653742104,-0.16787167431603015,-0.2842248633556516,-1.9617261268435757],[-5.513469010422071,0.9574663675363221,-2.458619852133556,-6.966682362211581,1.9402499190222946,-0.9214378172994533,0.05042407323182772,-7.328544643456519,-1.597827398690812,2.5891585200212113,-1.0502938954180043,-14.77366972713083,-16.114659549444877,5.311396957770071,-5.327479932316855,-0.694842646320642,-4.234888410581813,-4.604255528341398,2.755258449656137,2.3543646456061045,-7.42106028639645,0.7021122246866534,-1.7059511520499482,-8.525219401460957,-5.112479765770378,-10.116808498496622,-2.110428828279891,-1.5794217696923691,6.886310505441285,-1.9271198569795809,-0.9430255927440463,-1.8871884869422564,7.48862319720329,5.057021490600219,-3.3443636909830334,-2.399306252890796,-3.2504625181826987,-2.5865303546333585,3.8021792355988757,-1.5632584232761089,-1.6385289245278394,-3.941414011793015,-3.169564154333313,-1.0345172004411036,-2.24107662272063,1.5714972867373214,2.748774552493356,-3.160131708559838,0.45542810943423395,-9.68042883886607,-2.1529740700412088,-3.231212397143185,-0.3101809700959698,-0.10766544950921744,0.7418949497839887,-3.263004013653288,1.9268317308962124,6.636704555810312,-10.336818212202958,-5.255150753551163,4.087884427102964,-3.853433713220173,1.0889086998909139,2.1589340895758955,-0.9177024576236698,4.957482179887243,3.1367991762770995,-2.433597376151861,2.34840600895869,3.1315773834247578,-0.24305261955815105,-2.096134767771473,-0.578153834897331,-12.647408598461404,-1.7596282454462815],[-0.5096840631997607,-10.002218318216507,4.240296932031173,0.30712093449429245,-0.3676463562426586,-1.5813637996100594,4.246482602582527,-1.8901228850803968,-1.4305097530768218,1.6458774374559149,2.6772658762720085,-5.2431224683863125,-4.443644912197308,-6.707480616583516,1.0347323010637914,1.7182885989250765,-5.849726277642174,-5.7750866487732315,5.739338490416758,-1.0554619664769052,-3.5833629639507985,0.33600729354038505,2.4677492613251713,4.025237821946229,-1.3382545547183857,-3.1300607845024215,-7.125200710850511,-2.47490651163805,2.4788449837634015,-4.4277385429606815,-5.895917512028506,-0.22633842420927294,-11.219090874697862,2.250629093426231,-3.211091800611311,-8.627290049027941,0.9663038272888456,-7.66744264628432,-10.554843438291492,-6.7082912451170795,2.720121694017345,-4.352868854464285,0.7615575883156683,-1.918244940848888,-6.9089794365106725,-8.75043386938583,-0.4250754878693201,6.856605152217856,-9.1451737629317,-4.281540187346575,-6.567779616458988,-3.686422975508299,1.5643153440965885,3.789744698880188,-5.828084788653876,-5.141786982000354,-5.4007153401053785,1.9125358485739867,-6.470024285785594,-11.688489989006431,1.0728105977993811,-10.545072560076584,-5.959856812431571,-2.1328982754017165,-3.440856694326636,5.44628135933417,-0.1752172629726753,5.372724823428876,-4.631308226189682,7.6970281051785845,-0.22490430614384607,4.6050299899740725,0.3490743122333101,1.3212152515051077,-1.2429904919581214],[-17.463352247337543,-0.8042143284921829,4.244021037287928,2.0044230298309786,-12.727784802891987,3.046501963791081,-8.818948569496486,-7.258715953978922,-1.0919133553856235,-4.481029177904009,-11.324100097196709,-7.603366613936706,-0.5512032466349991,3.5894020208608617,-4.981983871810975,-0.2815555997715535,-1.900291931581406,0.48851766742369923,-7.893356525854314,-2.316789342159577,-7.4144974929347525,-0.6787884096309763,-10.736449211646658,-5.742978672557073,-0.456310882396408,-15.83007333786539,-1.3983242966161535,2.29318054992352,2.556715171577686,-9.054432701908047,-4.723385691433746,-15.559991170448923,-2.91180220917963,2.198529599150287,-5.060667440095894,4.027788538138889,-7.519932395718865,-1.136618803277744,-7.213646176855469,1.4589162296108868,0.2167125107269331,-2.966325476510585,-7.691957027761022,1.139048624157635,-10.006423751557936,1.4295229073988165,1.197892901611997,-12.07964351588918,-2.2004888535466662,-7.141882783495824,-3.2800607501924346,-0.5725967683981187,0.6500481165937553,-0.5048884209827607,4.03963077618811,7.83228095304286,1.2366172366958088,-6.977193079506206,-8.65002774215051,-17.394291590574024,0.8230802669534218,3.05514305361458,0.7054296454426147,-0.7133788393301411,0.8939111567878393,-1.4871644955994092,-1.5963599491620895,-5.432402886573221,-3.365937241457098,3.2068109961788944,-2.540907790780345,-8.98728754801082,0.7219019661397904,3.783536869510356,-0.04514264264406022],[1.7464401172598059,-13.100103511713614,-2.7370627544643025,1.615783280344219,2.6768062969018924,0.307813889621988,-4.956929167759246,1.9915084782471812,-10.356217357600542,0.7797341828368223,1.6697275063443304,3.2476182254478063,-0.30405007895806535,1.0180913188505811,-2.3800120943781313,-9.904981729672446,0.46319780742506994,-12.52146704620173,-7.623492934570387,2.438472433922708,4.23879077699031,-1.2162663383559864,-2.630099998713037,-1.4997120159328328,-3.045994857414696,-0.7590404029215991,5.227296253543613,0.27987327877788304,1.6834839867198648,-5.674524852494183,-8.990473811319438,-12.113581898322552,-10.319096800694334,5.753418495634679,2.974330149028845,-1.5779013572263607,-0.41508057646609053,1.9067279013256164,-6.371507039920516,-2.3966769717730068,-3.4131122353066297,-0.7609186527507132,-13.160537701966831,5.201624112416753,-21.6367694506086,-3.7343644137002876,-6.661388831922289,6.595175082265348,-0.5750901465824784,5.387240692184842,1.4694016332838895,-5.588954084893159,-1.3788629036956788,-3.1507422336405257,-3.2643952664611673,-14.54818090340468,-9.441351218097752,6.390478026011456,-11.624476165881294,1.3198400286178544,3.358125244503673,-3.689089039030584,2.4660863416822765,0.5069420537094798,1.2995152537599253,-0.9048733868329487,0.6663753200409103,-11.302173559621965,-3.4392755102558303,-2.531742946633704,4.091468862827789,1.0520411239113332,-1.691838102721193,-2.6925394107056624,-3.8768920720733036],[-10.556120885449511,-1.7896209034495938,5.581913306216016,-3.540019417499389,0.607002193549603,-6.024407560743267,-20.400491184361563,-7.150104477368954,4.699373020976151,-4.055413510064823,4.648552959892615,-7.653275286971592,-2.7865523771166187,-0.29207245013868277,1.1107484712629054,0.9563281676631105,-0.8402931867444998,1.5555501682558341,-9.585324645483416,7.041236158623649,-6.151184723706387,2.044663416921759,-9.192578008627416,3.860023961281833,0.018715316572219535,0.3815736757525794,-7.974485075139494,-7.570121631007065,-5.393517569074307,-10.117672851059206,-6.009458754263451,-13.127372597547998,-2.067400352495436,-0.527432259928508,-2.8343567152880715,-8.450681627455413,4.215802625372818,-2.724168587811606,-5.337278196339261,4.393539225560641,-0.9938535658589298,-0.8889133532168041,-1.2327660070593156,-4.549562805366402,-2.814031075650244,-7.985830343934275,1.939567637931665,-18.10834216153593,2.935307052760325,2.4767864334292735,-2.0532457163703013,0.47766109314639305,-2.703364311223597,-5.393590647736696,6.839428158976583,-10.248118164176141,-1.7614920847516713,-11.09203271647173,-10.655541949886503,-3.99612949963369,-7.226579734693692,-1.6469249444863159,-7.331011320912632,3.782406109750128,-3.376230602272347,7.041147487574736,-0.7363517711799249,1.8995284975751494,-5.824455597122397,-0.632543763368078,-1.1459412770371828,-1.0026286842306265,0.08308079699810175,0.14638534051934302,1.2314389771657994],[-1.362668009970473,-0.5122868778553019,-1.122907236086576,6.879281333370738,1.6630204856379383,-0.9149201608679567,-10.532878566951762,-8.133243573080652,-3.915992400522076,3.3068044471984255,1.6002162462022036,3.3781842038982495,4.245262342054049,-3.9612985151235423,1.7151675622419515,-0.9163791316362762,1.5124369996336198,-16.16552887667419,3.4358330501364676,2.5951810292945963,-9.1402665147006,-0.9465448225219513,5.373026851850772,-5.164322214055182,-0.21213363172024166,0.6271448099509584,-5.311423052828735,-6.843324965533156,-6.427095839495396,-6.402377250069855,-1.6360379422936329,2.629911172760118,0.26198102643208515,-1.9930056810508796,-15.897154755224483,0.24429215086664513,3.663237484959481,-3.6583028616334903,-2.0147156506769517,-13.46489642977024,-1.2981554393043224,4.5574162335473485,0.2939163908064877,-7.690056737878903,-0.9098316985234323,-3.8568450529581235,-7.165191728567461,5.87830144667348,-9.05733286857274,-0.21875313442406677,-7.503894432498804,-0.37464579029778056,-4.460848719825276,6.458588812610372,-8.203314300993771,-3.1151838056879484,-16.245327598986652,-1.1090823554288585,2.000614961051501,-7.491443749897186,-1.124132036844298,-4.855756763481428,0.9346453199589585,1.861081762163847,-2.589643841492956,-4.2002439551010315,-7.479836409585086,2.4650252857243844,-0.19397559978053708,4.50509119859632,2.7024124125175515,-2.402347249674231,-0.3039298304135354,-8.136163750686928,-3.277022745138206],[-8.04914887504734,2.125249142695996,0.531877137110895,-1.7575367367427557,-6.270946925974169,2.9993008394209273,-2.2024647083157944,0.6110319332724294,-1.828429278144449,0.3389647700469765,2.229707878368315,-17.192155767950066,-2.3708321633651175,-9.24013731216387,-1.972233107684718,1.1368014662800274,1.106124769516488,4.066030104699334,-0.23718418503999633,1.269119092162205,3.185533523015943,3.0628929333302026,2.5367695280918627,-8.232916162488085,3.4678848352159766,-1.4881796497747748,-0.4103687415646033,1.827896827654029,-2.831512734209768,-1.1265057788494381,0.7512924902635119,1.7953912610639906,-2.8334471002143125,-10.584561997230399,-10.482448221774462,0.2910277964937329,-1.9610171765080573,4.601386486067221,-9.312477396339602,2.02869593097086,-4.678310810830253,-0.7147246860074079,7.677783032250322,-3.928678045787299,-2.4918752693553725,-8.686386524842565,-6.136885727001003,-6.3689398970397235,2.1857907599470496,2.131189275123781,-2.7379515417090423,1.7961478040296013,-0.5924871604161754,1.2344176252709382,-6.556261247677683,-2.9157166118184747,-3.5287367418511866,8.761273460778549,-1.9877538018639516,-7.233322305065489,0.24816259156709142,0.5274002777441564,-9.272147263571004,-2.097366238141507,3.0170897329701405,-3.4600418798644594,-1.2129966252230822,-4.6178341109418435,-3.1572692691259445,5.590202120189242,-5.58405773564374,4.377793344017422,-1.2093813306546082,1.7423827379646295,-4.800622869109316],[5.300922740626156,-5.455088584004595,-2.658092815408575,-4.671712106575332,-1.0577933903842984,-0.29125022804912915,7.546132236946073,-1.70522294919077,-4.999344557100504,2.4511122759067705,0.649868703476715,-5.052124410483719,-0.9666537659729313,-3.6405633959087456,-15.3105587763307,-1.073463302178703,2.513480391778927,0.023008108309635653,-7.63607610000538,6.98025319907233,-3.067632596831542,-11.634225216789947,-6.229737734005866,-10.000259661763874,-0.11556523098410378,-1.9319142513717813,-5.009765969994387,-1.5506174734772924,-6.511234133167024,-4.185120790323286,0.1878943853270784,-7.930932009532492,-3.5875404172435688,-0.45442602575820445,-2.148117783466256,-15.774203760287097,-5.820219640511619,-10.83920565166148,-1.5991750040078148,3.5205105436566364,2.7616009928943672,-0.20268809702804633,-5.363475310805203,-10.295419290641995,-0.5102191284140111,-0.6034581901208583,-5.2706036689650375,-4.767775306620751,-3.7738016300705737,0.5725521343729572,-0.45327817008273386,-7.532678527477395,2.628580987701597,-3.264671468125311,-12.299848431871306,-5.809380298309879,-6.479837496716927,-0.05329233935515106,-4.270736925493699,-12.127932990413244,-14.804367903096123,-3.8471135672280963,4.380292205767952,1.7646640170859444,1.6730998185993113,-9.14957871752354,-0.4970522511970461,-13.434462553757955,-5.975614646558156,-0.6981653729417976,0.6084398613018464,-6.612302851579332,-0.8143300740134085,-12.229584016918535,2.511278419104028],[-1.1348625449476988,1.2306486701920054,-1.6653760139105993,1.112046557832784,8.165563912205213,-2.917185703633819,0.7071370775476779,3.0883025044354833,-10.003935545956043,-13.326759181256518,-12.704521300568455,5.492481982408068,-9.513877259972052,-6.163765580114245,0.13780080143366652,-4.620814281199524,-7.173191111173951,0.9775686999885734,-6.704158766463408,1.2792762515993648,3.222241503264394,7.921676151841612,-0.3013127455990298,-2.5879446694981256,-3.3483351619170594,-5.575063284929945,1.7638024755106667,0.5309799971019618,0.5318762893136529,-2.7506088444731422,8.721601985545473,-2.59362960933403,-1.1122797775371192,-11.360622991156665,3.959021883306126,-8.742582541559413,-2.639575175001058,-0.6700588274227737,1.53893653968304,-4.056844112509335,2.7801121652297667,-1.2357515506398156,-10.313761428290565,-0.18732383787188167,1.4333903417088816,-4.687131449442021,1.2849739175484707,-3.4591921763736138,-0.4576361083618491,1.472048844103481,0.16822918540966988,-6.612081045010863,-5.002305547631824,-11.588076072174495,-2.7411773486197446,-6.435120002085707,-1.219086226380851,0.3916958148238801,-1.9751605096600324,-2.2152066796309473,1.4013196097541105,6.854012345672154,0.24990471017309812,3.3554023774092827,-0.6642398471669635,-4.6474533349180795,-3.209043152240255,-0.04888559589425772,-5.080253501916396,-3.082363520347083,-0.8247221150974495,-1.1349953325484115,-1.543325327046645,2.547969427458424,-6.904139978331975],[-5.759506143799727,1.7926960435849655,-9.970215957388623,-1.4243056292758998,4.528581178610583,1.8837013687938797,-0.15716394571897607,-4.1697932155871795,-4.342200977885561,-4.2882461721025305,-12.83911021911647,-3.8011006384021178,1.1436164950401513,0.5824771523527369,-7.334735993471332,-10.178155939444968,-2.7090760963240768,-3.218035330215959,0.5069555749022894,1.7257168018706148,-1.8513418853996797,-3.32714808743909,-2.616904330998033,2.2194059470881924,-11.318873080063936,-1.9268607790550154,2.4025201203304642,4.430173351652169,-4.755727194957277,-0.5359795583298996,3.5849090098794805,3.822945006031194,6.986280683782345,1.3050559885941955,-6.538831074250249,-6.660579649778718,-5.94448440749979,1.4207671157940192,-10.210745891844633,-2.8484887907716887,-0.15269680721057746,-9.930517785163353,-7.702991861999548,-1.913474246467893,-13.700642100094742,3.437013282781549,-0.7937434799212727,-9.46778707821549,2.269982759833435,-2.87118817938233,-7.1696384293295745,1.6612424876557461,-5.631071390595783,5.071495619934231,-4.508835839376724,-3.1154754603092103,-4.240023288609906,4.415580375671243,-2.6091808312595184,2.6496033453049495,-3.9319102896925764,-1.686826795267881,1.1300872326521143,2.744815238667222,-4.108880262740794,4.365098897383104,0.8002078409540334,1.4176633997585415,3.778369178864242,-4.79659244131797,-6.414981768647547,-4.845909079412677,0.2859722058057344,1.6825242771999103,-1.284857854790518],[-0.9156739447346385,-1.1686643301740127,5.254150019314356,-2.8992462243725337,-1.873427194660931,0.3253346711494082,4.163293899195887,1.2847447479365395,-2.8690586705437604,0.8185295019613503,-0.7759238988783407,-1.7625696379289868,-2.826390888886474,6.546223163681211,2.0215691478088633,4.317726586142548,-8.46149383069013,-7.2388931709948094,2.914540565267296,-8.947356945801307,2.577779458268195,1.2808933564019969,5.176793367212599,-4.000120955623142,-7.199122227974193,2.041858953352341,-3.139761296969409,-2.65078146395835,-2.4141964494463033,-4.861909237460581,-0.9571128165732361,0.9480338756652733,-0.29161501733213463,6.057072146963063,-1.454090308632791,-3.2889414371197105,3.2261217667505946,-4.433869327195266,0.04620963658259208,-1.8120747622404594,-3.917281769173451,4.232448677362282,-2.0894069794187144,3.409584178144725,-4.0081044219862765,0.44351618071484006,0.8202353794095592,-11.331769515166975,-5.769595047655997,-11.190507042444098,7.371046693425171,5.149318888769419,-3.53927605501863,1.8942151886992509,-10.154195809255251,1.724611116601978,4.655194036707157,-6.5345580674185735,3.1503352052707045,-0.6437835530741896,2.9603118775119577,-7.027272427050736,-11.453267681803569,2.489273262216946,-1.8208751046334357,-2.560530769232102,0.19035469101000937,1.6074203163307808,-3.2863826918368018,-6.255402186797938,2.5985627746700284,-7.811129717342826,-1.5012721978965624,-0.6392608240814297,3.9396633171093725],[-2.1215734662787056,4.819741302568101,0.9366140227596014,-6.500275593908675,-3.708301872246026,1.5495893541471026,1.1626983337603616,4.121286855017455,2.8837864169138356,-5.600332841488784,-8.418781431910507,2.8149999935753476,-1.1726214694546682,0.33108133434692655,-9.200807856806229,3.39553547363284,2.1708047432911646,-3.7963080169407952,0.04972650446979172,8.717991855722445,-0.2726777806058216,-1.1760486243282628,3.807120518370636,-4.266750571962058,3.1878289892050176,-2.5276769055788595,0.6543998708461571,-1.9130047567078958,-7.676962866678216,6.857187860506557,-6.548373078524848,2.5094646525208333,4.68003203225956,-1.0550431317508566,-8.474368441199315,4.5134351890140065,-3.449808205132595,-4.186297095525978,-0.44283059698958094,4.087139901048346,0.17594908230288428,-3.1254713260825278,-1.361061593088384,6.170705266418783,-0.37804768445799686,4.806548448811883,-3.655600788241675,0.577492964954371,-6.079488765346794,4.555150863469946,-2.3619125893342363,-3.976642428536889,-2.906118115843201,1.5511229575871517,-2.0484405669820136,0.2893640084559175,3.632830537508629,4.329675587662479,2.6733448383285663,3.363793392156515,-1.4609536918031498,2.45017857466859,1.0972327719232486,0.7888355491919266,-2.6127147950550116,-7.653995770586244,3.511956094090659,1.3209631635513739,-6.7133829060878405,-5.82564837296159,-0.7562665089488427,0.8352962977525374,0.2892069937616546,-2.752340933355685,-3.8706902020655556],[-0.10522472317196635,1.2071083368944293,-2.2310564953755274,2.253146635596079,-3.2288607563017564,-4.42821058845826,2.399540293321156,0.14872604544438287,-3.4505593995705244,2.6830229165306676,6.486140961317035,-9.607451928539955,-0.18382320638546307,0.9919353283700965,-0.8687364229780593,-1.1078569262025795,-1.5111647622767361,4.843227309417712,-6.87291154188301,-0.869144879128514,-7.0977547854556775,-3.89369827875068,9.855396477992171,8.923626642481368,-4.877024860582317,-10.044027459664349,0.42296225257231995,2.5373558663481393,1.6104585217427465,-0.8988752857169621,-5.122076731878678,-4.22081519861,3.6365944886128627,3.9523040550585056,8.068788513611535,4.889527260565725,-0.6827724673100545,2.9734335062899735,3.0653613060397347,-2.1414942698306256,-0.9421241138071201,-4.048456263583163,-0.18777856566829718,4.171993574299994,-3.2729922327111383,3.278601650131263,-3.9487995135870784,-9.533114137100497,5.064926822814894,3.393172605887082,1.6512364001389797,-2.2010766704716174,-3.7967491755655285,-1.7222125391122873,4.804701452874954,2.1268143018470003,1.2870143153142881,2.2257513387818277,4.915714289881944,-0.584042529375848,-3.9211678625865534,-0.15260742990606205,0.8219428081979346,-0.1068125571619785,-1.5752784500227004,0.21549897338912874,3.78795712866004,2.0238809780455487,0.2841960855226179,6.025877910288391,0.7497020458710745,2.49162265314342,-0.0015772500865013682,-0.7722693000571669,-0.5003947541998484],[-9.286450822595523,-9.165117167665619,0.6085777421674441,0.11112454689525145,0.16033795578199378,-3.7029645631939365,0.8041615114733339,-2.858518571066036,0.46610992749974356,-9.626082229164934,3.2523394737544487,6.585351042449908,1.7208096957882897,3.8671110476718624,-6.217158406504486,1.865730636712624,-3.617327758106482,-1.0108263724071873,4.589518617465225,2.1807346343542613,-7.189842503685862,-8.698576924373274,-8.467959391123449,-6.040398911999384,-13.507548082615337,-8.576026708111737,-3.558358511071749,2.233751271732051,2.8093185651897072,-2.804073901335964,3.7979291192557114,2.8124707954582715,0.4247762322612058,0.7118524849436502,-12.933381202570366,-2.9112142711959565,-3.4993827476164676,0.8587902854352625,-1.2919700025818421,-2.740224801593148,0.752316458855444,-2.6196939736025797,-17.053759515048405,-2.2446915984280342,1.4400150239722318,6.028190135169933,-2.489973806904253,-12.63332004488693,-9.160763533663006,-5.0832106297336255,-1.104761751522435,-2.766417572823327,4.915280797427074,3.6757249916176544,0.5720043377902777,1.0551938984897382,-3.368704856828721,-1.7857495651128004,3.367391573936357,-12.40832597942349,2.530920372935818,1.626844571680392,-6.802153984240884,-2.4106960408889866,-6.065067208100375,4.289626046948522,4.114534609395659,0.16230752621055042,-0.5589725534023298,1.877999376335667,0.713134029690708,-5.475155582498057,0.6092798015960423,-3.4986936619647264,-1.5840564794445782],[0.7457994831669581,7.645682527238566,0.5472797914310084,0.7375427249426788,2.6833662350683753,-1.4954623425027798,-2.739351826870118,0.20804133306826275,-3.6123628595708963,-1.8708175208354045,-6.11858509604667,0.4932641673573329,-4.143924406936275,-1.2106853683821976,0.9894858979092149,-4.747979595558367,-1.6843105513463812,1.0322929752289027,0.4267250575227308,-10.330098453963414,-7.612436525911623,-12.129203914692683,9.372194575199432,-0.9188486977313227,-2.393734816535402,0.5460578319455641,-0.5524640752031,3.7595341188137117,-5.215159743283222,-1.295230249921899,0.4020920184408711,-6.8825492246461035,-10.711325352728254,4.708256945255965,-12.784157191801636,1.6663847827627165,3.1001852993108696,-5.459673650796087,-0.27643309905263586,2.014840883382441,-6.936579760487691,-0.06341947893673974,0.9492757624589379,0.003188338626828707,-5.998917643974844,3.8576087131630494,1.069750790496414,-2.4859291256963445,2.9194928699134133,0.9566714807057823,-0.7944189866680583,1.744977665514633,1.6024117212735662,-2.7759879377449073,0.07549825771374462,1.8081445178699969,0.30473778907891924,-1.5090279648453937,1.3914889164310331,-0.455330970598873,8.249658848017521,-2.3768133929706936,0.23695750751294628,-0.47102839525751805,2.9134700578287482,-5.094544035399355,3.333193489300947,-2.697929286144162,-1.433953617077336,-0.7248816282860803,-1.574665336757031,-4.781747708764262,-0.7598097589164219,2.283937483003652,2.381052692386134],[2.7602223796399237,-1.3105423787754158,-10.876917431274395,1.4174308180195805,5.495210020423922,-10.526630013790841,-3.5372668490175028,-4.070350379984288,-12.866566158589027,-4.330942971375073,2.8369409405550563,0.08122625451945369,-2.730408364870074,-2.186937939704886,-2.3402706961790884,-5.114096681718854,2.1720423123011807,-5.23960162200712,3.034004962863561,-2.9635601710170305,-2.217302782654238,3.0622019345346034,3.194886684867248,0.34985302023389125,0.5415286768875326,-1.6455324412505663,-2.8601152907008864,-4.481112200673806,1.4282070262986224,-3.226608781490325,5.5804712935549645,3.5976399897185187,-5.182877913706564,-3.315878476417137,2.0029617954431904,-7.4027706650263685,1.2230708946994804,1.1634337290333068,-0.1523421493279777,-0.21010334875299602,-12.460137014895233,-1.5074152850353442,0.4838349397461487,6.092766283403192,-13.288530045809017,2.22401524449593,2.1399860250535747,-1.5645120815941647,-3.9710632828844723,-2.66988260402523,-1.2614122552210547,3.355717347402416,-2.655864238720535,0.770120229972536,-2.288376161292349,1.5320015232048547,2.6997871710210117,7.115242584651038,1.6948957844828667,2.675764962789841,-5.47685570609246,-1.1618114472606997,-0.9938525432125201,-5.877505505215379,1.4041043793244234,1.5240153926769129,-11.037086960158824,-1.0125000575275398,0.6896794196654098,1.6469821870985395,1.3246419364856716,-15.76862197031283,0.5620034587024331,-4.1039893224633035,-6.727845758572941],[-9.500354512395756,0.18846722198485666,1.9009829175104154,2.228823115225855,1.186171190952303,-4.27617069916097,-2.9474570678369973,0.9824269554033455,-2.64234834994797,-2.364981063344483,-5.333619106825365,-10.222092695559718,-8.563999291244413,-3.1222610925904304,2.801164598613669,1.7364333623402397,2.593934787600426,-0.013292615340042158,-0.42316761931822156,4.281363499115178,4.638411195325484,-6.394595119396727,3.177434361322405,-3.674853496286116,2.773372661383044,-1.6517818817245917,1.3690064985093375,-8.166901885984752,-4.768148365873754,-0.26553661882831153,-3.692273852524779,-1.9018971782637948,-9.302213908590183,-8.689100044520075,-1.8977198827350357,-1.5414964727962586,0.8577926104731743,3.602410472705614,4.4949095390694245,-5.358184235820561,-1.7235141594579593,0.5433617713278857,11.705033049592721,-0.2853753395453436,5.4147383061316345,-0.34492877275381273,-8.084703118021908,-3.6428482995918574,1.526744657921595,-9.01715830709756,-6.494087706289246,4.341945509374315,-0.6108568369540502,-3.9044757817268194,1.274009314658963,2.597191951055864,-1.7057351383849932,-19.95379862965076,2.7399974074482505,-0.07042747216177832,-0.9679994603360504,-5.552220095685771,-2.9704971044271766,2.0500364399741478,1.2428296523515994,-1.9254394914174933,0.7946181548180911,-0.24516950793602424,-10.504921143716688,4.122002428766237,-1.6666498722233345,3.9868770898494095,0.421006522884402,4.442394430521722,1.5483173357015914],[-9.294558013633635,3.2146648491744227,-0.7425677483865343,-1.055104417294213,-6.151741957318967,-2.2359721995589616,-6.53106229811434,-2.432066092447245,3.297060619121455,-6.2365076259707815,1.838957481287446,-14.707332499479337,-2.452099995226597,-2.250807768136081,2.3487315423616186,-0.10486253564275241,4.029319548456422,-2.1204855357882857,0.5699215436709808,1.2077557662139853,-10.622758051449699,-9.6942722212783,-0.7215165848795958,-4.23874242000114,2.8643740000030316,-0.1920508598021054,-2.2038034410334593,-7.4052908087281475,-1.3725293067977002,-2.5824842068494926,-5.353086132188311,1.3872084614404747,1.2191128663257262,3.7357389512535746,2.3795327659623116,4.94940011959307,-5.5102301511378,-7.255862678236634,-5.380624573510323,-0.12713326556627197,4.142244204748082,-0.793005609081381,-4.868799467843322,0.9111857982161735,-0.42095177418590873,-4.362307229462136,1.2882079853446644,-6.492578465081444,-11.737483435833857,-4.687594018085236,-12.453094917240568,2.0018359063910545,1.133517175936296,-2.5725298267101935,-14.32412110033105,3.2279184947526565,3.5143842630005313,3.2120735869437054,1.7066688123608444,-5.04229018138038,-3.257562852055503,-1.9332303633415706,-0.37322262830421826,-4.500942892008719,3.0272049687018665,4.310913248707708,3.0260306111999085,-4.304800507041554,7.489493035169678,-3.1152824330886317,-3.456653184857314,4.246001407208391,-0.5904221302204566,2.1700990543612733,1.7436023570531656],[-7.116198732183249,-4.574021676139039,-2.959313627792163,-0.39801734102210673,-6.403238534657069,-3.569022758213232,-17.176291448351723,4.282323194304023,2.1970995853064226,-11.416813135773006,-7.623835725144114,-5.033663816444272,0.1863217790813211,-1.9301372283421792,3.5902547358981867,-3.9110262319214093,-0.3682738591174777,0.06972477195588199,-9.84946210007833,0.929257485615792,-1.8745830449731213,-9.90730792207304,-12.881471608659712,0.9154319718478123,4.840045952283508,-0.7594171277919775,0.7012790327761677,-4.340274278896677,0.4041869635337913,2.2247877374484255,3.594641952292821,-1.3374771199326192,-11.108328511348418,-6.9757392460014715,-1.0704475693940538,4.384830116134882,1.7092205463095194,-5.3078838752835855,-1.0525497410185825,-12.891548196467316,3.1233931066629252,-3.5346154403412045,-2.31310788366468,-14.32312392309206,-2.1326430230321685,2.241421438864719,-15.749430201119363,6.337537506539235,1.0234530240618471,-1.2838622733369354,-6.072275507821605,-5.165654543357933,-10.91449179248107,-3.835259778794099,1.007012651264924,-7.396750012205022,-13.486798368553334,-16.01841080352715,-1.9446006255728607,-1.851893295751542,5.236187586066929,-2.539889540525494,5.0502228151365225,5.186784960569468,-1.6346970099161504,1.6565215996195126,-17.98090003124788,-17.853921847977524,1.8876435436695498,-3.7722970674289376,1.8077543059581442,3.519720460146722,-2.728568747408754,0.7395243806066739,-0.7675156738044585],[1.43395991183401,-2.4374967137098325,-3.5351568894013896,-1.0960347674511457,2.995769741245197,-0.8350551075685256,-2.0722833406437466,1.1533705601621074,-1.3210130622938705,-3.7284585711895315,0.8057327080225165,-2.5557925795324734,2.7263660719426155,-0.004743055372943037,3.925149126392677,-8.107421291038595,-8.019949941324494,-2.1461306414900916,2.374488067087223,1.3436769224816019,8.650229606990202,-7.172980994275712,-0.12217574964057107,-4.842013883825675,-2.4188352539860607,2.9879036518211977,-8.464045330474962,-0.8956622547960161,0.7824976883231255,-4.3823717531490045,-3.7249346112785524,-0.028608276310207174,-5.777053147062313,-1.255344391718577,15.755678094196753,-2.8835324345680133,-2.6885882865002806,-6.895097592174322,-0.21494647396582697,5.047561272934133,-0.8098397678924097,1.1956063082657584,1.5334689787247338,1.6839019971652396,2.709256953329255,-0.7279798933614002,2.4859319608333386,2.9583614789949584,-1.2815421811899235,-1.0858827040684795,-5.669129028544911,1.9438636617208875,4.136170317558294,-2.3317988651410193,2.103164418453155,3.039925488592816,8.5386021949862,-6.023355365560577,-1.5628002946003359,-4.106989819718928,-3.4627152379886508,-2.6630184047762517,-2.208866370181542,-0.25960858928560887,-0.8423800612326122,2.0255223428497584,-5.851570705219969,0.8701231946273573,4.466421744909902,-1.5178435379298865,1.8423110909150477,0.937676338332262,0.8063746017184032,1.3879597304103837,-0.10719538066211139],[-3.146756287083963,-6.727038043187421,-17.605328079105487,2.7431119830937285,0.14731028270976484,-1.9601483489513958,0.176581254853295,-2.0246219908613594,3.7592828908018587,5.427931576071317,-2.1627420130130934,-0.988539400460008,1.313817165158033,-10.875394075239086,1.333316073206137,-3.0500454994549404,1.9675560109066124,-9.09903003892092,0.26624366085258716,-2.6337315304451123,9.347372875889809,-9.634644348012957,-3.25606956938382,1.5403964037621758,-1.299429040025092,-4.647027410012171,-2.9817659856411143,-1.358700014627439,-3.425784893415888,0.12255130820661758,-3.3410267246769823,6.451213111114812,1.7519323438900722,-1.193188722578813,-2.7052666040302342,0.3886303263725856,-6.759078443522543,4.460224845218631,-0.9062987880595194,-0.07335161388407645,-1.3331675420648654,-2.311545716594412,-2.069541251277751,-3.712598064089489,-3.842878489500449,5.437028755041108,-7.8810636285954585,-13.057881913466211,-15.13012886752811,-2.1110148496156658,-7.039097672725709,-1.5308489602437991,-7.025381209338808,-10.630243670958375,-10.470433620791681,-4.776941173881601,-6.7317719132004115,4.888162769172289,7.527377209721762,-5.703425605482726,-3.150211988988717,-0.5430664052135664,-5.607112140032727,-2.540258464776034,-2.5935852484607467,3.503060783929878,-0.2744303390492854,-8.961172035233968,-6.33485725182801,-2.217864984473558,2.328246838999934,-0.7362573688035213,-1.069735126241919,-5.004158386869181,-2.479116390546808],[-2.3940937018516513,4.758369023115317,-2.0142652769453138,0.6264800859203167,-1.6358834872127184,3.1998882904257733,0.3590351324208801,0.9882175853280556,0.7048201897702902,-2.1334840089491114,-0.6888218337515825,3.4070580715077554,0.6821687796524595,4.948809119283619,-0.802256036812441,-6.278206908973406,-0.9338351801125273,-1.7512453945106723,2.780308037278672,0.2496248107918943,5.423268106826384,-11.005344001932794,-0.055088411337773646,-2.58190811674612,1.6427432458244564,-4.662258835140862,-3.3201289563724687,5.154976302183382,2.962295594395053,-2.2192983234566777,1.4369078432754214,3.4403855142312167,5.149282218586426,-9.687451003991061,-20.995008242850464,2.1972765946943476,-4.524230224394623,2.6547070818970346,-0.009355049053633638,-1.3163985490453896,1.755595664303786,0.2837987293162266,-14.725892297883615,-1.2599167187761424,6.050092077315093,-2.6945074515720417,7.434839330666927,0.2819470995940195,3.3091648955868602,0.4869777132144257,2.3426913853237505,-12.050429881119447,-1.8116264046408919,0.7613837497526237,2.5352960764472274,-13.644626422078613,-2.413170711770767,-3.2840353965872366,6.796005802871444,-6.399022354535987,0.7766049151922781,6.078205385740384,-2.2137613815655506,-3.042747450487767,2.0353416464684435,-3.228799351271219,-2.659367769583681,-2.8495378965551126,-2.9587806601224274,-5.386372131197748,2.5094036119115986,4.222552743504617,-2.586048590597058,2.1575748817096025,-8.594777682019341],[0.06521749949351954,3.112276276596111,-1.7176218746398868,4.920966801956071,-4.027190581202804,-4.413308486537369,1.3087712908237759,-7.734494060759095,-11.325987128969272,6.066806079297405,-1.0468521976928722,0.6670516211362718,-1.226437782365992,-0.426234676425154,-0.6321615827479576,0.28470198739488795,-3.0055463096582096,-3.7004316194843865,5.306248809504572,1.0546416431555832,-7.0291153912975055,-7.719041237937336,-1.693930627693761,0.8384015800504746,-4.104861000757035,-3.1145309213988326,2.534176637400468,0.613061967158162,-3.8609677782992713,3.882379064987038,-0.03799690509922952,2.800136840985799,-7.025497782127981,4.008012738505309,6.462088569732123,-3.822365011973771,-1.551133013831379,-4.390722703124206,2.471748148300307,-0.33485382415025733,5.063770470561932,0.8857514025681549,-3.779532211326135,-0.5103865322670965,-6.515485488549832,4.642956351184995,6.373448067603076,-3.1509997154949896,-2.6026572693848014,-5.743110311326078,-6.1698720374020715,-0.025656336821988,-1.4413996504355169,-1.8535487268875561,3.2280825358101195,-4.115653410601598,6.480504004719864,2.8909884445179386,5.080840106036538,-17.88536436998744,3.0198548317996456,-8.265816614978538,-4.414413006879279,-2.2185469127677195,2.2515632005215624,-13.25194669769556,-5.556542804720331,-1.1842000119549825,5.365541186392052,-8.012018232757947,3.2761132742771664,3.0360892709925853,-2.430886272506372,0.14995294554348287,-2.8772236051467743],[7.9644229819210235,-1.3714725674589272,1.888699688168902,-1.7733164948201092,-2.248758435235463,-4.7992260789517776,4.658902493746621,-14.490494353753453,-6.99930291431317,-0.3903523055995137,-4.463347390977272,1.5047332775863755,-0.7323961942980507,2.9574469328444684,3.3186399815689356,-0.3101149094477784,-0.42517062405989,0.904451864712674,-3.063779709928341,2.3614796988957565,-0.32514223796215563,2.983285751784667,2.178944012928044,-0.6945064164463062,-1.6187985763866843,-2.3606471697218803,-1.3905960601486682,-3.117478101146912,-2.4607729160710297,-1.9631211848335577,3.4782764004734275,1.6797271592763385,8.575991357598168,5.775876871635901,-2.095080527055361,-6.218131425743285,-2.946251784180444,-1.137342357554892,-2.4036575634807735,-6.124787860161173,-8.027808329373222,0.5825221020934257,3.0211442171308978,4.061526136439633,3.0733910769583126,-5.3917693594076646,2.964374599592017,10.006288765900882,-1.576901545151914,-1.1574868134810552,0.6730295349672847,-4.128683367898206,2.9544306715084208,0.4067099840998252,2.171800117655281,-1.1172520177949647,2.59088785837133,-11.551056485259155,3.9216611704910167,4.7206310693065445,-1.0946829714324002,1.006806624650702,1.040423983338474,-11.830880659444666,4.048886574692556,1.6044381547986268,-10.741962426080814,10.181739442774589,3.7209617906244987,1.0422915706371572,1.862731103439596,0.3694765117430011,-0.6951373017794128,-1.7751409633726198,-5.232574721593229],[0.6032519455863398,3.7787665276726465,2.6116546622025933,1.5872289576631398,-2.6208935732752687,-1.4915319056564575,-9.07398040338542,-0.34740269518416234,-7.6567807540763155,-5.916537562002189,1.7198004086338743,-4.602773834666984,-4.799610837454329,5.777008154315901,-5.136796017981364,-2.756252281083363,0.6917298545528892,1.3869103911104905,-0.21029107849590448,-5.356095643988805,-0.49117773615743116,4.824925699569147,-1.471408472770507,0.6026066389388912,-3.5975033609661806,1.6973037543899498,-2.852061466540109,4.5063814270883835,-0.1365201331371857,-5.675582380717055,-17.268393959794103,3.0699380382156933,-3.4320404998517775,-0.9823264795343742,2.994823343842288,4.192451842864266,-6.238889077767536,-17.520600685592516,2.7083116265482015,1.5884506509963798,-3.9144256018368093,-0.9212975677835732,8.780693571757103,-5.394265088827969,3.5829437756144826,4.553465201058663,6.164825862644237,0.7844623326001633,4.010119917642485,-8.159512106035736,-3.252709799925178,-1.5229812651262493,0.2442419168344439,1.509588461649004,1.9835801743508548,-8.102208032652936,-2.77321341356578,6.577757186438205,1.0199941380705646,-2.2501707642531756,-5.249235948918794,-5.458399621656723,-3.3580140322527625,-1.3433000210783579,1.5822223685836831,1.83413244277722,0.537782564335631,-2.890757227172673,4.5281748113054165,-1.8640472729786826,1.9906735457640639,3.319472768826669,-0.4780530544590175,-0.4917690358937903,-0.45507392230305],[1.3865055503710235,-12.894036979106929,2.1914249338833636,1.6177250421195002,0.07313448371900061,-12.15998771695663,4.317826233199466,4.471439019986863,-0.08027332666811678,-0.5218622037182364,-10.056487749665314,-4.442239416700956,0.522358681758413,-12.819177461977622,-1.9286840045459464,-11.117641314008672,-1.2279686957641605,1.6182502048228762,1.9411932301092756,5.028894337052643,-3.979008513605824,-5.511542034021402,0.5836366885957748,-11.49701889706853,-0.17333100767425652,-1.2735567902079055,1.5268257335971254,1.9659469457333658,-2.837863107371739,-3.9745712514453313,-14.932828293564107,1.8853683334337943,-5.925184893112521,-3.2212692407105408,-0.8396526314177823,-7.111887677326565,-3.3582519673139126,2.961264724051312,-6.195254371150441,-2.367328730412601,-0.6725662725746153,-3.0247994957604485,-0.42499339880720316,3.094066185597247,6.680719863561683,-8.374793097332258,1.942134734882642,2.512738625617402,2.817456045629317,-8.732890310434017,-4.262848834010272,-3.6048326975706617,-16.573481944279415,0.44168567926112356,-12.634542676657025,4.522107539753402,-5.367520071893068,3.3888221059833112,2.9883910899971116,-4.426920359230199,2.6746698567983302,-3.7959711038446664,-4.449949836905984,5.014870619754463,3.598406984496412,-3.1351084408690357,-8.475342940138075,-5.032580773351345,-5.556256030887942,-12.55495714772952,2.655828789656356,-2.1911921170020063,1.4541788362413985,4.190939418737095,-5.699280286526579],[-11.875099175585948,1.2493965140286856,-0.6821161620091795,2.7461902160700755,0.7127340971354426,-3.7160241180996088,-7.025310061919184,-4.698394500959673,-6.400406376247263,2.4779989228809485,0.03523885446365037,-1.617355746983884,6.092609170748558,-0.8053503379369003,-1.6188499075856726,-15.972225664703641,-3.4621289535960145,1.9416633147876798,0.3756517492000535,1.2103036746026543,-8.377467889569399,-7.60635524708638,-11.879021156880581,-8.026070468593744,4.134842584552157,-2.390054896827924,-3.3031613105459954,0.0775009927574133,0.1942260092381047,-2.0919930952199692,-6.9806628968485676,-11.50364015558642,-7.071898446480528,1.741662054704582,1.353086521665428,-1.0210270635937397,3.8158844036587687,-2.4607947032192516,0.04826223425722881,2.203123070660229,-8.170769338789722,-2.8398936856648356,-4.336889283867946,2.408541544422311,-2.400405918432524,-2.9074726581356494,0.3708236918780496,4.252326929877985,-9.919201995651182,-2.961250164671928,1.6540278398280153,3.9032732314459606,0.14117514892446498,0.0558817374925941,-16.411880280193405,-7.348009603638508,-0.9739207818870227,0.33173888175363736,-3.5368050431011677,-2.6961964014459383,-3.4953721759511662,3.0808557054125316,-1.5107867333965481,-2.2585729849826444,-14.447378474839839,-6.973674230975287,8.204851261504864,0.6956071153151011,-5.292068623574259,3.011067969384733,0.5013289325256377,-7.060269069838313,-0.4289906837970198,-6.615906163099461,-7.0990441399303155],[-9.442953723070524,-7.65512809492263,2.0573562436662822,-11.798167001557028,-2.5794486757291106,4.502641692070898,5.372220598801418,-6.045978615823567,-15.079334366408192,5.717497695034405,-5.666761721535278,3.9745721378437646,-3.932538183073761,-1.9436335035744257,-2.918597185862252,-10.545121487974544,-3.1685469963615382,-0.3900902395742354,-0.46492322288114724,3.849072488708016,-3.967343262437583,-21.968212632558597,-2.119065982040306,2.766721741180312,0.2808318905948787,-12.42312955950743,-7.71613615679097,-6.614590590570289,-1.323078437416874,0.7150220590182547,-13.16109934652222,3.8115581740821702,0.9379840040110403,-4.058843808993993,0.9986316963969494,2.858025993095203,-2.30693575168797,4.966531082869679,-18.01992942131465,3.2910915507735705,-1.9414430130582496,-10.766516673327828,-7.332569356171667,10.440295497735937,1.2654742062358013,-13.252244105929336,-1.1262593036536028,-4.480313407192626,0.4694569728149547,-7.77634279743651,0.9842461483294017,-3.1625014660441106,0.43148347493820194,-2.3099983217694815,-7.186344542093179,-0.10016471928891682,-7.676661002462389,-9.9500001449278,3.43441874615616,1.2475812030818971,-4.460474403115123,2.484005447057571,-3.339173863192175,5.604876159641756,-6.951465661273651,3.1555922982660527,-2.0706775931708084,1.5498911561491435,-6.683854297477696,-2.7769746019917565,1.553337694997071,-5.145018646069678,-1.991747887672839,-1.9883461973738652,0.4259583089369066],[-4.345995546994405,-7.497613765561928,-3.950044111233026,-4.978922183497447,-4.9183507259936015,-0.48937536254594344,-9.464876463054948,1.6782010005067505,-7.862852380326049,-3.3562717075131783,-3.718738017597276,-3.758591996228824,-1.5702999611059143,-4.817273378863197,-2.7023282252221046,-8.178209335435733,-2.88685397963963,-0.9538275941784907,-6.943440000715543,0.49303628190477655,1.1261092198624663,0.04532438114882829,-5.798620292456567,3.1622727153614574,-5.525388748750158,4.42748666011786,-12.813955288281248,0.28311437482480206,-9.001137100366046,-3.9547860050624175,-7.847800538411824,-9.614050386814998,-1.9500481277877237,-10.93519292629237,-0.9480787311594268,-2.3537642116791067,1.9701140674650006,-8.98622731338515,1.308963760803896,0.1546095674365993,0.6873825735174104,0.5653145060825804,-12.27275272639382,-6.668894746738958,3.7747246739296747,-4.003096241332501,6.044645200617993,-6.331692290261225,-8.63658537410844,1.6303347296816675,-16.0683952497255,-5.8360600721198095,-7.018600918926723,-0.7311010896427036,-4.737400356971343,-10.002992844683993,-6.9922011447949375,-8.951543133983762,0.7225823984268803,-5.5053793585968585,-0.8052153000959577,-1.236798379859103,-4.278563673865818,-2.710677019119711,-13.126499141219131,-4.377832386841665,-9.46659374519641,-1.0152490633686575,-2.200851913490242,-9.31085847014498,2.1492456688247876,1.5599372699308702,1.4018771099156764,5.806298084198228,-4.659428368591481],[2.4120615588415593,-1.9030356234053412,-7.555804525491371,-0.04399151527187499,-8.22049917289895,-3.5018232159168754,2.123990603637738,4.672372355159793,-1.8959004369053554,1.3000271959399705,1.4245916578994475,5.0900631522946265,2.8141356362469465,1.8017238695484108,-1.1013377567451679,-10.642377257623028,2.0322694040137903,-3.2546552769517256,-2.56236128441261,0.04994143907861862,-0.8481814564353048,0.41390809806835926,-6.045195589178039,-0.599218252370078,2.3656140802062335,1.6306642029945182,6.39810833814096,-1.8177932894284714,-5.156427985019859,-0.6177755831147047,4.591915629476309,1.4836403318879618,-5.604398886742611,-3.0898035846937,-7.187418891689409,0.8757398490150161,-2.162184807863392,-1.5759753676806778,4.156284482994529,-2.335590033935905,2.886566357630785,-6.190749744877769,-0.7313304169049293,-2.7067667966564577,-3.338011951790963,-5.052239021514597,4.36088695723009,-6.954819461727016,-5.52510871693503,0.5628951670566015,-2.741829475854835,-9.501428879927813,0.5151624062253263,-0.02758690946310482,-4.090704586055099,2.522584419077637,-0.5086157818804257,-5.173558117601344,2.1692449257063484,6.461939652168501,-0.44439717237605014,-15.809749125431553,1.5103353448661423,-10.486857908768645,-0.6619456767070537,0.7555449611358903,8.76249418472433,-6.425253175553454,4.179071378608191,-2.124084722259762,-0.983440238229313,2.6420427680074154,-2.03069715361782,-1.5666653127394154,-2.5165379716078364],[-19.75340623996845,-4.125689992078531,-1.3940609317951518,-0.5164775304923911,4.431802922772075,1.2578840645267433,-1.08888595962157,-3.900647136260531,6.047351835021423,-7.196973021549593,-9.543737629667737,-0.3036320286344467,0.6960493276305595,-17.54201178709987,-3.26809541160707,0.16274158351646598,-0.8470741425153793,-5.070472126203349,4.5370651250646,-12.343689517223627,2.328774917292272,0.1358718732307918,-5.676733597103031,-3.4708618212883775,-0.9864554612804732,-3.9721274463780705,-7.294937468092328,-4.156918204967664,-10.221343919536196,-0.45004800014364904,0.5760506565623222,5.0997880803835045,1.2985291861543442,-7.620552213769038,1.2826917587841413,-5.4317147591847235,1.7077953842032163,-1.955757300703908,-0.2584323412640257,-0.9531329680837812,-0.7016990002744544,1.436129121612337,4.37703758673207,6.461396173523512,4.907815984599709,-7.276056422659678,-7.749572122598526,-0.8521598476799286,-3.6260557709672305,1.5562427356265556,-4.628173356300599,-5.098566019255667,-1.9301828071690585,1.3349251608333907,-5.09000780335283,-3.08665867994761,8.76997070069439,-6.2916015781157135,3.197090285390958,-2.1554245747051035,-1.9307840788758912,-0.3274071232381871,-0.4242209574649194,0.0875188009102225,-4.463026843578592,0.9907365547734216,-9.40381997742539,-1.6100023038153537,-0.5517661168802954,-0.4106063895021353,1.4023556308166387,-6.734020415242873,0.8381865591960412,-0.10486187215125377,-8.575224877517776],[1.2844085227118704,-0.2342193037464462,-2.318061035001143,-9.372101274227099,-12.164710760259643,2.0550275290641853,-5.657668928377623,-5.408493297108668,-11.680721869396152,-22.67236027724986,4.962871229479493,7.372034712045309,1.4514021765806224,-0.32511353022651485,-8.107376499132936,2.190947396172864,-0.21905528361632898,-9.76861452875213,-8.504897662884677,-4.446157958244843,-2.5346943895450282,2.8293048612968863,-11.568031518313388,-2.9687579267533275,0.7742325239278163,1.2412916037538786,-3.81922728451363,-2.4670056558848783,-1.379305829687794,-1.614738536055866,-2.6705907329428307,-8.954667504472084,-12.099333615945865,-3.4910685823932615,3.366441803772426,1.5903394186685718,-1.8894581335609684,1.7279270757379657,0.4636922986022424,0.9729538805874122,2.4158271918922307,4.013357895691598,-0.2881549569497101,0.38185999991573666,-8.418497145390825,-8.544788530924894,-6.609547347808022,-8.307927447275825,0.9979284272289753,1.4869347808088837,-0.7748356173534697,-2.835721703801442,-1.2612129809895427,-4.966256663368103,2.4794023666164073,0.875364427192205,-0.1599118494612748,0.603339797486637,4.867701962571628,-14.228666578564477,-3.863185654044663,1.9480557129629426,-1.1493428821737228,-6.905188911306854,-1.4041499484389064,1.1213781924644173,2.5755392647449553,7.203167552856569,0.5426263078579475,1.6417530242963134,4.1657574704232845,-3.1694656000745063,0.1689677989512483,2.519703229804864,-2.4261184008050596],[-4.512320797176251,-4.34643005075847,4.491394786912165,-2.994506021829258,-2.0872738542445206,2.6557867539037465,2.4971617595087685,-2.606418015302549,8.074674895031714,-3.5779926338305055,-5.165899267912712,-2.9808974781738065,2.099352035835277,2.9809555053951207,2.1488247094712727,-1.5583948816056774,3.0169387509688685,-0.7524066500966919,-2.8045215985312923,-4.807800258904635,2.1781090656346156,0.8954339531752822,-3.6582973822291756,-0.8808604628743034,1.2627875544232294,3.9605394211161475,-2.5972876233247675,2.206721112413171,5.2014544723190435,2.1321199553281835,-4.719398878556539,1.6811097894828377,-7.848926904243747,7.996897970817285,-2.133797857549516,-7.940506483049569,1.3292563094716872,-1.2955196357631908,